{"learner":{"attributes":{"best_iteration":"99","best_ntree_limit":"100","scikit_learn":"{\"n_estimators\": 100, \"objective\": \"reg:squarederror\", \"max_depth\": 5, \"max_leaves\": null, \"max_bin\": null, \"grow_policy\": null, \"learning_rate\": 0.1, \"verbosity\": null, \"booster\": null, \"tree_method\": null, \"gamma\": null, \"min_child_weight\": null, \"max_delta_step\": null, \"subsample\": null, \"sampling_method\": null, \"colsample_bytree\": null, \"colsample_bylevel\": null, \"colsample_bynode\": null, \"reg_alpha\": null, \"reg_lambda\": null, \"scale_pos_weight\": null, \"base_score\": null, \"missing\": NaN, \"num_parallel_tree\": null, \"random_state\": null, \"n_jobs\": null, \"monotone_constraints\": null, \"interaction_constraints\": null, \"importance_type\": null, \"gpu_id\": null, \"validate_parameters\": null, \"predictor\": null, \"enable_categorical\": false, \"feature_types\": null, \"max_cat_to_onehot\": null, \"max_cat_threshold\": null, \"eval_metric\": null, \"early_stopping_rounds\": null, \"callbacks\": null, \"kwargs\": {\"verbose\": true}, \"_estimator_type\": \"regressor\"}"},"feature_names":["roomCount","propertyAge","livingSpace","hasBasement","hasBalcony","parkingLotCount","hasGarden","hasElevator","year","houseType apartment","houseType ground_floor","houseType half_basement","houseType roof_storey","houseType maisonette","houseType raised_ground_floor","houseType terraced_flat","houseType other","houseType penthouse","houseType loft","bundesland Berlin","bundesland Bremen","bundesland Nordrhein Westfalen","bundesland Hamburg","bundesland Sachsen Anhalt","bundesland Niedersachsen","bundesland Baden Wuerttemberg","bundesland Rheinland Pfalz","bundesland Hessen","bundesland Brandenburg","bundesland Sachsen","bundesland Thueringen","bundesland Bayern","bundesland Mecklenburg Vorpommern","bundesland Schleswig Holstein","bundesland Saarland","city_avr_rating","city_avr_acc_population_change","city_avr_population_change_last_year","city_avr_persons_per_km2","closest_city_distance"],"feature_types":["int","int","float","int","int","int","int","int","int","int","int","int","int","int","int","int","int","int","int","int","int","int","int","int","int","int","int","int","int","int","int","int","int","int","int","float","float","float","float","float"],"gradient_booster":{"model":{"gbtree_model_param":{"num_parallel_tree":"1","num_trees":"100","size_leaf_vector":"0"},"tree_info":[0,0,0,0,0,0,0,0,0,0,0,0,0,0,0,0,0,0,0,0,0,0,0,0,0,0,0,0,0,0,0,0,0,0,0,0,0,0,0,0,0,0,0,0,0,0,0,0,0,0,0,0,0,0,0,0,0,0,0,0,0,0,0,0,0,0,0,0,0,0,0,0,0,0,0,0,0,0,0,0,0,0,0,0,0,0,0,0,0,0,0,0,0,0,0,0,0,0,0,0],"trees":[{"base_weights":[5.273098E2,4.1519794E2,1.02847E3,6.8056616E2,3.7439648E2,1.0237078E3,5.08418E4,5.292187E2,7.7328876E2,3.2582062E2,4.9957257E2,9.450556E2,1.7583694E3,9.529875E2,9.64938E4,4.4068088E2,6.247337E2,8.676895E2,6.649506E2,2.837899E2,3.8056375E2,6.2147644E2,4.5257812E2,1.1406718E3,8.17973E2,1.6932924E3,4.09217E3,3.7302417E2,4.9685565E2,5.1070895E2,6.904694E2,9.718269E2,7.2878345E2,6.0051447E2,7.570658E2,2.2091682E2,3.0734213E2,4.229093E2,3.1819937E2,4.2238788E2,7.128538E2,4.0861575E2,5.1286633E2,1.0191781E3,1.2982943E3,9.898696E2,7.0423785E2,1.3905087E3,2.0532915E3,2.2358691E3,5.1585938E3],"categories":[],"categories_nodes":[],"categories_segments":[],"categories_sizes":[],"default_left":[1,1,1,1,1,1,1,1,1,1,1,1,1,0,0,1,1,1,1,1,1,1,1,1,1,1,1,0,0,0,0,0,0,0,0,0,0,0,0,0,0,0,0,0,0,0,0,0,0,0,0],"id":0,"left_children":[1,3,5,7,9,11,13,15,17,19,21,23,25,-1,-1,27,29,31,33,35,37,39,41,43,45,47,49,-1,-1,-1,-1,-1,-1,-1,-1,-1,-1,-1,-1,-1,-1,-1,-1,-1,-1,-1,-1,-1,-1,-1,-1],"loss_changes":[7.401705E10,1.1655889E10,5.7075876E10,2.0128563E9,5.6734597E9,1.391267E10,5.2291084E10,4.606556E8,9.092219E8,1.5465923E9,1.4941266E9,5.406458E9,3.5296707E9,0E0,0E0,1.0733005E8,1.9615642E8,6.868869E8,2.4543027E8,5.6303E8,7.708754E8,1.3200712E9,4.9881498E8,1.6390554E9,2.5772687E9,2.466693E9,1.2375951E9,0E0,0E0,0E0,0E0,0E0,0E0,0E0,0E0,0E0,0E0,0E0,0E0,0E0,0E0,0E0,0E0,0E0,0E0,0E0,0E0,0E0,0E0,0E0,0E0],"parents":[2147483647,0,0,1,1,2,2,3,3,4,4,5,5,6,6,7,7,8,8,9,9,10,10,11,11,12,12,15,15,16,16,17,17,18,18,19,19,20,20,21,21,22,22,23,23,24,24,25,25,26,26],"right_children":[2,4,6,8,10,12,14,16,18,20,22,24,26,-1,-1,28,30,32,34,36,38,40,42,44,46,48,50,-1,-1,-1,-1,-1,-1,-1,-1,-1,-1,-1,-1,-1,-1,-1,-1,-1,-1,-1,-1,-1,-1,-1,-1],"split_conditions":[9.0865005E1,1.75E1,1.21295E4,6.2665E1,6.9805E1,1.5137E2,2.5E0,1.855525E3,1.6404999E1,1.698385E3,1.6205E1,1.35E1,2.855E2,9.529875E1,9.64938E3,4.9805E1,4.4655E1,2.4999999E-2,1.65E1,4.7575E1,1.8345001E1,-3.275E0,1.65E1,1.85625E3,1.6404999E1,1.9042051E3,1.901025E3,3.7302418E1,4.9685566E1,5.1070896E1,6.904694E1,9.718269E1,7.287835E1,6.005145E1,7.570658E1,2.2091682E1,3.0734213E1,4.229093E1,3.1819937E1,4.223879E1,7.1285385E1,4.0861576E1,5.1286633E1,1.0191781E2,1.2982944E2,9.898696E1,7.042379E1,1.3905087E2,2.0532915E2,2.2358691E2,5.158594E2],"split_indices":[2,1,2,2,2,2,0,38,35,38,35,1,2,0,0,2,2,39,8,2,35,36,8,38,35,38,38,0,0,0,0,0,0,0,0,0,0,0,0,0,0,0,0,0,0,0,0,0,0,0,0],"split_type":[0,0,0,0,0,0,0,0,0,0,0,0,0,0,0,0,0,0,0,0,0,0,0,0,0,0,0,0,0,0,0,0,0,0,0,0,0,0,0,0,0,0,0,0,0,0,0,0,0,0,0],"sum_hessian":[1.317364E6,1.076539E6,2.40825E5,1.43462E5,9.33077E5,2.40803E5,2.2E1,5.4504E4,8.8958E4,6.72219E5,2.60858E5,2.17518E5,2.3285E4,1.1E1,1.1E1,2.8288E4,2.6216E4,4.7533E4,4.1425E4,3.80265E5,2.91954E5,7.2578E4,1.8828E5,8.5658E4,1.3186E5,2.2655E4,6.3E2,1.2836E4,1.5452E4,9.59E3,1.6626E4,2.7163E4,2.037E4,2.4379E4,1.7046E4,1.03631E5,2.76634E5,1.73882E5,1.18072E5,2.2834E4,4.9744E4,1.08887E5,7.9393E4,4.8377E4,3.7281E4,5.2502E4,7.9358E4,1.2308E4,1.0347E4,2.31E2,3.99E2],"tree_param":{"num_deleted":"0","num_feature":"40","num_nodes":"51","size_leaf_vector":"0"}},{"base_weights":[4.7458798E2,3.7367892E2,9.2566956E2,6.3147644E2,3.3937622E2,9.213432E2,4.61813E4,5.3293567E2,7.48895E2,2.9761682E2,4.6315677E2,8.0495593E2,1.3536298E3,8.656303E2,8.764853E4,4.293278E2,5.960665E2,6.5320135E2,8.443507E2,2.6166913E2,3.5300177E2,5.7157245E2,4.1525473E2,9.8183075E2,6.909868E2,1.2324523E3,2.0393888E3,3.5837186E2,4.9977814E2,6.7528424E2,4.87245E2,6.0869763E2,7.860984E2,7.4834143E2,9.6978955E2,2.2880873E2,3.0375833E2,3.3796542E2,5.5531226E2,3.873133E2,6.529554E2,3.6646918E2,4.6366406E2,8.7126306E2,1.137528E3,5.757061E2,8.0477264E2,1.044124E3,1.4741556E3,1.8916594E3,3.6841248E3],"categories":[],"categories_nodes":[],"categories_segments":[],"categories_sizes":[],"default_left":[1,1,1,1,1,1,1,1,1,1,1,1,1,0,0,1,1,1,1,1,1,1,1,1,1,1,1,0,0,0,0,0,0,0,0,0,0,0,0,0,0,0,0,0,0,0,0,0,0,0,0],"id":1,"left_children":[1,3,5,7,9,11,13,15,17,19,21,23,25,-1,-1,27,29,31,33,35,37,39,41,43,45,47,49,-1,-1,-1,-1,-1,-1,-1,-1,-1,-1,-1,-1,-1,-1,-1,-1,-1,-1,-1,-1,-1,-1,-1,-1],"loss_changes":[5.996377E10,9.519792E9,4.710931E10,1.4623703E9,4.9110303E9,1.2114412E10,4.314378E10,4.4936192E8,5.263524E8,1.4143734E9,1.2444877E9,3.82387E9,4.2420797E9,0E0,0E0,1.2994099E8,3.6786483E8,1.6991642E8,3.4701312E8,5.957878E8,8.504197E8,1.1010806E9,3.9242138E8,1.2788285E9,1.5130665E9,1.9745055E9,1.8564137E9,0E0,0E0,0E0,0E0,0E0,0E0,0E0,0E0,0E0,0E0,0E0,0E0,0E0,0E0,0E0,0E0,0E0,0E0,0E0,0E0,0E0,0E0,0E0,0E0],"parents":[2147483647,0,0,1,1,2,2,3,3,4,4,5,5,6,6,7,7,8,8,9,9,10,10,11,11,12,12,15,15,16,16,17,17,18,18,19,19,20,20,21,21,22,22,23,23,24,24,25,25,26,26],"right_children":[2,4,6,8,10,12,14,16,18,20,22,24,26,-1,-1,28,30,32,34,36,38,40,42,44,46,48,50,-1,-1,-1,-1,-1,-1,-1,-1,-1,-1,-1,-1,-1,-1,-1,-1,-1,-1,-1,-1,-1,-1,-1,-1],"split_conditions":[9.0865005E1,1.05E1,1.21295E4,7.0865005E1,7.0994995E1,1.30275E2,2.5E0,5.218E1,1.55E1,1.735335E3,1.6404999E1,1.35E1,1.8487E2,8.6563034E1,8.764854E3,1.850285E3,1.6525002E1,2.089135E3,1.855905E3,5.7995003E1,5E-1,-2.745E0,1.55E1,1.65E1,1.742355E3,1.856415E3,2.855E2,3.5837185E1,4.9977814E1,6.752843E1,4.87245E1,6.0869762E1,7.860984E1,7.4834145E1,9.697896E1,2.2880873E1,3.0375834E1,3.3796543E1,5.5531227E1,3.873133E1,6.529554E1,3.664692E1,4.6366405E1,8.7126305E1,1.137528E2,5.7570614E1,8.0477264E1,1.0441241E2,1.4741557E2,1.8916594E2,3.6841248E2],"split_indices":[2,1,2,2,2,2,0,2,8,38,35,1,2,0,0,38,35,38,38,2,31,36,8,8,38,38,2,0,0,0,0,0,0,0,0,0,0,0,0,0,0,0,0,0,0,0,0,0,0,0,0],"split_type":[0,0,0,0,0,0,0,0,0,0,0,0,0,0,0,0,0,0,0,0,0,0,0,0,0,0,0,0,0,0,0,0,0,0,0,0,0,0,0,0,0,0,0,0,0,0,0,0,0,0,0],"sum_hessian":[1.317364E6,1.076539E6,2.40825E5,1.26421E5,9.50118E5,2.40803E5,2.2E1,6.8739E4,5.7682E4,7.10442E5,2.39676E5,1.89725E5,5.1078E4,1.1E1,1.1E1,2.6029E4,4.271E4,2.8809E4,2.8873E4,4.30822E5,2.7962E5,7.3443E4,1.66233E5,7.4342E4,1.15383E5,4.341E4,7.668E3,1.2971E4,1.3058E4,2.4714E4,1.7996E4,2.1586E4,7.223E3,1.6359E4,1.2514E4,2.41939E5,1.88883E5,2.60278E5,1.9342E4,2.2502E4,5.0941E4,8.2799E4,8.3434E4,4.3475E4,3.0867E4,5.7318E4,5.8065E4,2.4402E4,1.9008E4,7.038E3,6.3E2],"tree_param":{"num_deleted":"0","num_feature":"40","num_nodes":"51","size_leaf_vector":"0"}},{"base_weights":[4.2713742E2,3.396498E2,8.497737E2,5.712086E2,3.0681448E2,8.4558563E2,4.1948016E4,4.5646085E2,6.6103595E2,2.5198161E2,3.8922913E2,7.366929E2,1.2182827E3,7.862808E2,7.9614086E4,3.7879102E2,5.3509485E2,5.876095E2,7.6368945E2,2.1891116E2,2.9533255E2,5.0147235E2,3.554239E2,6.281207E2,8.902876E2,1.1375603E3,2.05521E3,2.689034E2,4.099223E2,4.4963098E2,6.2623724E2,5.250804E2,6.7073376E2,6.702606E2,8.855608E2,1.9222824E2,2.5684222E2,3.1664E2,1.9447133E2,3.3797946E2,5.9405817E2,3.229709E2,4.1497913E2,7.5169495E2,5.445338E2,1.0502278E3,7.861618E2,9.6161774E2,1.3858994E3,1.5760106E3,2.7238157E3],"categories":[],"categories_nodes":[],"categories_segments":[],"categories_sizes":[],"default_left":[1,1,1,1,1,1,1,1,1,1,1,1,1,0,0,1,1,1,1,1,1,1,1,1,1,1,1,0,0,0,0,0,0,0,0,0,0,0,0,0,0,0,0,0,0,0,0,0,0,0,0],"id":2,"left_children":[1,3,5,7,9,11,13,15,17,19,21,23,25,-1,-1,27,29,31,33,35,37,39,41,43,45,47,49,-1,-1,-1,-1,-1,-1,-1,-1,-1,-1,-1,-1,-1,-1,-1,-1,-1,-1,-1,-1,-1,-1,-1,-1],"loss_changes":[4.8709878E10,8.2983404E9,3.885174E10,1.3968261E9,4.3196006E9,9.167389E9,3.559662E10,3.633152E8,5.725942E8,8.2283725E8,1.4488863E9,2.914943E9,3.4485043E9,0E0,0E0,1.0233702E8,2.3008154E8,2.300457E8,3.603538E8,3.295058E8,5.337477E8,1.337815E9,5.6712806E8,1.05762E9,1.2049367E9,2.0342538E9,1.434921E9,0E0,0E0,0E0,0E0,0E0,0E0,0E0,0E0,0E0,0E0,0E0,0E0,0E0,0E0,0E0,0E0,0E0,0E0,0E0,0E0,0E0,0E0,0E0,0E0],"parents":[2147483647,0,0,1,1,2,2,3,3,4,4,5,5,6,6,7,7,8,8,9,9,10,10,11,11,12,12,15,15,16,16,17,17,18,18,19,19,20,20,21,21,22,22,23,23,24,24,25,25,26,26],"right_children":[2,4,6,8,10,12,14,16,18,20,22,24,26,-1,-1,28,30,32,34,36,38,40,42,44,46,48,50,-1,-1,-1,-1,-1,-1,-1,-1,-1,-1,-1,-1,-1,-1,-1,-1,-1,-1,-1,-1,-1,-1,-1,-1],"split_conditions":[9.2545E1,1.25E1,1.21295E4,6.6185E1,6.4994995E1,1.30275E2,2.5E0,1.855525E3,1.65E1,1.698385E3,1.5675E1,5E-1,2.0111499E2,7.862808E1,7.9614087E3,3.9965E1,1.55E1,1.91266E3,1.85596E3,1.65E1,1.7500001E-1,-2.3449998E0,7.7955E1,1.6415E1,1.5475E1,1.8996699E3,2.0571E3,2.689034E1,4.099223E1,4.49631E1,6.2623726E1,5.2508038E1,6.707338E1,6.702606E1,8.855608E1,1.9222824E1,2.5684223E1,3.1664001E1,1.9447134E1,3.3797947E1,5.940582E1,3.229709E1,4.1497913E1,7.5169495E1,5.445338E1,1.0502278E2,7.861618E1,9.616177E1,1.3858995E2,1.5760106E2,2.7238156E2],"split_indices":[2,1,2,2,2,2,0,38,8,38,35,7,2,0,0,2,8,38,38,8,39,36,2,35,35,38,38,0,0,0,0,0,0,0,0,0,0,0,0,0,0,0,0,0,0,0,0,0,0,0,0],"split_type":[0,0,0,0,0,0,0,0,0,0,0,0,0,0,0,0,0,0,0,0,0,0,0,0,0,0,0,0,0,0,0,0,0,0,0,0,0,0,0,0,0,0,0,0,0,0,0,0,0,0,0],"sum_hessian":[1.317364E6,1.091434E6,2.2593E5,1.35544E5,9.5589E5,2.25908E5,2.2E1,5.9519E4,7.6025E4,5.73997E5,3.81893E5,1.7483E5,5.1078E4,1.1E1,1.1E1,2.9946E4,2.9573E4,4.4326E4,3.1699E4,3.2561E5,2.48387E5,8.8392E4,2.93501E5,1.0243E5,7.24E4,4.6587E4,4.491E3,6.613E3,2.3333E4,1.5265E4,1.4308E4,2.5301E4,1.9025E4,1.7947E4,1.3752E4,1.9115E5,1.3446E5,2.05064E5,4.3323E4,3.196E4,5.6432E4,1.89982E5,1.03519E5,4.1326E4,6.1104E4,2.8545E4,4.3855E4,2.7271E4,1.9316E4,2.618E3,1.873E3],"tree_param":{"num_deleted":"0","num_feature":"40","num_nodes":"51","size_leaf_vector":"0"}},{"base_weights":[3.8443106E2,2.9453516E2,7.1973975E2,5.048916E2,2.7010074E2,7.166498E2,3.810278E4,3.5303616E2,5.470961E2,2.2259352E2,3.3435468E2,6.0558435E2,1.0168469E3,7.142051E2,7.2316125E4,5.8024066E2,3.3652173E2,6.1374115E2,4.555805E2,1.955607E2,2.6633664E2,3.2362476E2,5.876881E2,7.5109064E2,5.1594244E2,9.22005E2,1.5339791E3,4.3703253E2,6.5333514E2,2.6168576E2,3.8534338E2,7.089226E2,5.142554E2,4.1510187E2,5.3762317E2,1.4444844E2,2.1094043E2,3.0835043E2,2.0310052E2,2.836474E2,3.7957053E2,7.2520276E2,4.0826523E2,6.417678E2,8.609314E2,4.417005E2,6.340205E2,1.0539468E3,6.983106E2,1.1483138E3,1.918522E3],"categories":[],"categories_nodes":[],"categories_segments":[],"categories_sizes":[],"default_left":[1,1,1,1,1,1,1,1,1,1,1,1,1,0,0,1,1,1,1,1,1,1,1,1,1,1,1,0,0,0,0,0,0,0,0,0,0,0,0,0,0,0,0,0,0,0,0,0,0,0,0],"id":3,"left_children":[1,3,5,7,9,11,13,15,17,19,21,23,25,-1,-1,27,29,31,33,35,37,39,41,43,45,47,49,-1,-1,-1,-1,-1,-1,-1,-1,-1,-1,-1,-1,-1,-1,-1,-1,-1,-1,-1,-1,-1,-1,-1,-1],"loss_changes":[3.9708967E10,5.3394964E9,3.2144441E10,6.926889E8,2.8410388E9,9.284731E9,2.9369682E10,8.803686E7,5.1568435E8,6.327132E8,1.075241E9,2.6511524E9,3.6872192E9,0E0,0E0,1.6379072E7,8.000077E7,4.6312448E8,1.1817318E8,2.5995162E8,5.4293504E8,8.4881E8,3.963269E8,9.299927E8,1.102463E9,1.8750628E9,1.7261425E9,0E0,0E0,0E0,0E0,0E0,0E0,0E0,0E0,0E0,0E0,0E0,0E0,0E0,0E0,0E0,0E0,0E0,0E0,0E0,0E0,0E0,0E0,0E0,0E0],"parents":[2147483647,0,0,1,1,2,2,3,3,4,4,5,5,6,6,7,7,8,8,9,9,10,10,11,11,12,12,15,15,16,16,17,17,18,18,19,19,20,20,21,21,22,22,23,23,24,24,25,25,26,26],"right_children":[2,4,6,8,10,12,14,16,18,20,22,24,26,-1,-1,28,30,32,34,36,38,40,42,44,46,48,50,-1,-1,-1,-1,-1,-1,-1,-1,-1,-1,-1,-1,-1,-1,-1,-1,-1,-1,-1,-1,-1,-1,-1,-1],"split_conditions":[8.7005005E1,7.5E0,1.21295E4,5.2059998E1,6.2875E1,1.20515E2,2.5E0,1.0815001E1,1.6525002E1,1.740585E3,5E-1,1.65E1,1.7124E2,7.142051E1,7.231613E3,3.0165E1,3.3635002E1,1.5E-2,1.75E1,4.2825E1,1.8115002E1,1.65E1,4.5E-2,1.55E1,1.85599E3,1.5E-2,1.90401E3,4.3703255E1,6.533352E1,2.6168577E1,3.853434E1,7.0892265E1,5.1425537E1,4.151019E1,5.3762318E1,1.4444844E1,2.1094044E1,3.0835043E1,2.0310053E1,2.836474E1,3.7957054E1,7.252028E1,4.0826523E1,6.417678E1,8.609314E1,4.417005E1,6.340205E1,1.0539468E2,6.983106E1,1.1483138E2,1.918522E2],"split_indices":[2,1,2,2,2,2,0,35,35,38,31,1,2,0,0,2,2,39,8,2,35,8,39,8,38,39,38,0,0,0,0,0,0,0,0,0,0,0,0,0,0,0,0,0,0,0,0,0,0,0,0],"split_type":[0,0,0,0,0,0,0,0,0,0,0,0,0,0,0,0,0,0,0,0,0,0,0,0,0,0,0,0,0,0,0,0,0,0,0,0,0,0,0,0,0,0,0,0,0,0,0,0,0,0,0],"sum_hessian":[1.317364E6,1.038851E6,2.78513E5,1.0811E5,9.30741E5,2.78491E5,2.2E1,2.3514E4,8.4596E4,5.35106E5,3.95635E5,2.03284E5,7.5207E4,1.1E1,1.1E1,1.591E3,2.1923E4,4.8946E4,3.565E4,3.30726E5,2.0438E5,3.79561E5,1.6074E4,7.7492E4,1.25792E5,6.3554E4,1.1653E4,5.4E2,1.051E3,8.658E3,1.3265E4,2.5011E4,2.3935E4,2.3876E4,1.1774E4,7.65E4,2.54226E5,1.22793E5,8.1587E4,2.21377E5,1.58184E5,9.098E3,6.976E3,3.8841E4,3.8651E4,7.7235E4,4.8557E4,3.9973E4,2.3581E4,5.82E3,5.833E3],"tree_param":{"num_deleted":"0","num_feature":"40","num_nodes":"51","size_leaf_vector":"0"}},{"base_weights":[3.4599457E2,2.8618942E2,7.607059E2,2.375692E2,4.2355212E2,7.560116E2,3.4610027E4,4.0522394E2,2.2174324E2,5.7654193E2,3.6894806E2,6.982899E2,1.283538E3,6.487363E2,6.568715E4,3.483763E2,4.8477872E2,6.052762E2,2.1834074E2,6.43164E2,4.6801657E2,4.406621E2,3.0397626E2,5.838906E2,8.4672705E2,1.2171493E3,2.9377478E3,3.1311862E2,4.4276495E2,4.066376E2,5.679438E2,7.758505E2,3.691049E2,1.6950029E2,2.4300311E2,7.5767395E2,5.296505E2,3.8954327E2,5.237203E2,3.1471136E2,5.1707385E2,2.7180807E2,3.712782E2,6.665252E2,4.5227682E2,7.148044E2,1.00761774E3,9.288552E2,1.5045939E3,3.3550283E3,-5.664277E2],"categories":[],"categories_nodes":[],"categories_segments":[],"categories_sizes":[],"default_left":[1,1,1,1,1,1,1,1,1,1,1,1,1,0,0,1,1,1,1,1,1,1,1,1,1,1,1,0,0,0,0,0,0,0,0,0,0,0,0,0,0,0,0,0,0,0,0,0,0,0,0],"id":4,"left_children":[1,3,5,7,9,11,13,15,17,19,21,23,25,-1,-1,27,29,31,33,35,37,39,41,43,45,47,49,-1,-1,-1,-1,-1,-1,-1,-1,-1,-1,-1,-1,-1,-1,-1,-1,-1,-1,-1,-1,-1,-1,-1,-1],"loss_changes":[3.267289E10,7.689208E9,2.6355933E10,2.2561382E9,2.5141658E9,5.054071E9,2.4232028E10,3.3153434E8,1.0138378E9,5.720904E8,1.0334044E9,2.5405358E9,1.7944084E9,0E0,0E0,1.4223309E8,1.9839898E8,2.7493914E8,9.276539E8,6.3718605E8,1.3144474E8,1.01456486E9,2.5186611E8,9.1883725E8,1.38163E9,1.3031199E9,9.24564E8,0E0,0E0,0E0,0E0,0E0,0E0,0E0,0E0,0E0,0E0,0E0,0E0,0E0,0E0,0E0,0E0,0E0,0E0,0E0,0E0,0E0,0E0,0E0,0E0],"parents":[2147483647,0,0,1,1,2,2,3,3,4,4,5,5,6,6,7,7,8,8,9,9,10,10,11,11,12,12,15,15,16,16,17,17,18,18,19,19,20,20,21,21,22,22,23,23,24,24,25,25,26,26],"right_children":[2,4,6,8,10,12,14,16,18,20,22,24,26,-1,-1,28,30,32,34,36,38,40,42,44,46,48,50,-1,-1,-1,-1,-1,-1,-1,-1,-1,-1,-1,-1,-1,-1,-1,-1,-1,-1,-1,-1,-1,-1,-1,-1],"split_conditions":[1.00195E2,7.4994995E1,1.21295E4,7.5E0,1.65E1,1.61405E2,2.5E0,1.65E1,1.0735E1,2.4999999E-2,1.7715E1,5E-1,2.855E2,6.4873634E1,6.568715E3,2.0894849E3,1.85621E3,3.5E-2,5.1715E1,1.6525002E1,1.45E1,1.74305E3,1.75E1,3.5E-2,1.85625E3,5E-1,8E2,3.1311863E1,4.4276497E1,4.066376E1,5.679438E1,7.758505E1,3.691049E1,1.695003E1,2.4300312E1,7.5767395E1,5.2965054E1,3.8954327E1,5.237203E1,3.1471136E1,5.1707386E1,2.7180807E1,3.712782E1,6.665252E1,4.5227684E1,7.148044E1,1.0076177E2,9.288552E1,1.504594E2,3.3550284E2,-5.664277E1],"split_indices":[2,2,2,1,1,2,0,8,35,39,35,7,2,0,0,38,38,39,2,35,8,38,8,39,38,7,2,0,0,0,0,0,0,0,0,0,0,0,0,0,0,0,0,0,0,0,0,0,0,0,0],"split_type":[0,0,0,0,0,0,0,0,0,0,0,0,0,0,0,0,0,0,0,0,0,0,0,0,0,0,0,0,0,0,0,0,0,0,0,0,0,0,0,0,0,0,0,0,0,0,0,0,0,0,0],"sum_hessian":[1.317364E6,1.151333E6,1.66031E5,8.5035E5,3.00983E5,1.66009E5,2.2E1,7.3344E4,7.77006E5,7.9166E4,2.21817E5,1.49638E5,1.6371E4,1.1E1,1.1E1,4.278E4,3.0564E4,6.831E3,7.70175E5,4.905E4,3.0116E4,1.05435E5,1.16382E5,8.4511E4,6.5127E4,1.5741E4,6.3E2,3.1149E4,1.1631E4,1.5761E4,1.4803E4,3.965E3,2.866E3,2.58419E5,5.11756E5,2.4415E4,2.4635E4,1.2506E4,1.761E4,3.9814E4,6.5621E4,7.8748E4,3.7634E4,5.1913E4,3.2598E4,3.5788E4,2.9339E4,7.861E3,7.88E3,5.63E2,6.7E1],"tree_param":{"num_deleted":"0","num_feature":"40","num_nodes":"51","size_leaf_vector":"0"}},{"base_weights":[3.1140128E2,2.5076266E2,6.4353174E2,2.085972E2,3.5696423E2,6.400458E2,3.1437441E4,3.6207037E2,1.9592735E2,5.057482E2,3.1542413E2,5.7004224E2,9.8014526E2,5.892688E2,5.966583E4,2.8834854E2,4.1463437E2,1.6052711E2,2.3128566E2,4.153578E2,5.701703E2,3.7391678E2,2.6025842E2,7.006957E2,4.7284402E2,9.2849554E2,2.0512627E3,2.604296E2,4.0251566E2,2.8404205E2,4.5004343E2,1.547978E2,3.2638876E2,4.797361E2,2.2079488E2,3.8450934E2,5.638268E2,4.918478E2,6.727718E2,4.3919946E2,2.556373E2,2.1584233E2,2.9599466E2,8.7792346E2,5.220485E2,5.936359E2,3.985003E2,7.3753784E2,1.1347992E3,1.2555819E3,2.7822378E3],"categories":[],"categories_nodes":[],"categories_segments":[],"categories_sizes":[],"default_left":[1,1,1,1,1,1,1,1,1,1,1,1,1,0,0,1,1,1,1,1,1,1,1,1,1,1,1,0,0,0,0,0,0,0,0,0,0,0,0,0,0,0,0,0,0,0,0,0,0,0,0],"id":5,"left_children":[1,3,5,7,9,11,13,15,17,19,21,23,25,-1,-1,27,29,31,33,35,37,39,41,43,45,47,49,-1,-1,-1,-1,-1,-1,-1,-1,-1,-1,-1,-1,-1,-1,-1,-1,-1,-1,-1,-1,-1,-1,-1,-1],"loss_changes":[2.6531471E10,4.9883873E9,2.1812158E10,1.5504425E9,1.9565158E9,4.8411116E9,1.9993102E10,2.3551437E8,9.21942E8,4.021248E8,7.9850906E8,2.1414175E9,1.918466E9,0E0,0E0,8.057856E7,1.640064E8,3.4972467E8,9.603932E8,1.3149133E8,3.2385024E8,9.274235E8,2.0210995E8,2.2773146E9,8.682312E8,1.3038162E9,9.2477645E8,0E0,0E0,0E0,0E0,0E0,0E0,0E0,0E0,0E0,0E0,0E0,0E0,0E0,0E0,0E0,0E0,0E0,0E0,0E0,0E0,0E0,0E0,0E0,0E0],"parents":[2147483647,0,0,1,1,2,2,3,3,4,4,5,5,6,6,7,7,8,8,9,9,10,10,11,11,12,12,15,15,16,16,17,17,18,18,19,19,20,20,21,21,22,22,23,23,24,24,25,25,26,26],"right_children":[2,4,6,8,10,12,14,16,18,20,22,24,26,-1,-1,28,30,32,34,36,38,40,42,44,46,48,50,-1,-1,-1,-1,-1,-1,-1,-1,-1,-1,-1,-1,-1,-1,-1,-1,-1,-1,-1,-1,-1,-1,-1,-1],"split_conditions":[9.5055E1,7.1994995E1,1.21295E4,5.5E0,1.25E1,1.4048999E2,2.5E0,1.45E1,1.55E1,1.45E1,1.7915E1,1.6205E1,2.4475E2,5.892688E1,5.966583E3,2.137355E3,4.3295E1,5E-1,1.2675E1,2.1422148E3,1.85577E3,4.5E-2,1.45E1,1.5E-2,1.85E1,5E-1,2.0160701E3,2.604296E1,4.0251568E1,2.8404205E1,4.5004345E1,1.5479781E1,3.2638878E1,4.7973614E1,2.2079489E1,3.8450935E1,5.638268E1,4.918478E1,6.727718E1,4.391995E1,2.556373E1,2.1584234E1,2.9599466E1,8.779235E1,5.2204853E1,5.9363594E1,3.9850033E1,7.3753784E1,1.1347992E2,1.2555819E2,2.782238E2],"split_indices":[2,2,2,1,1,2,0,8,8,8,35,35,2,0,0,38,2,31,35,38,38,39,8,39,1,7,38,0,0,0,0,0,0,0,0,0,0,0,0,0,0,0,0,0,0,0,0,0,0,0,0],"split_type":[0,0,0,0,0,0,0,0,0,0,0,0,0,0,0,0,0,0,0,0,0,0,0,0,0,0,0,0,0,0,0,0,0,0,0,0,0,0,0,0,0,0,0,0,0,0,0,0,0,0,0],"sum_hessian":[1.317364E6,1.113981E6,2.03383E5,7.97393E5,3.16588E5,2.03361E5,2.2E1,6.0806E4,7.36587E5,6.9096E4,2.47492E5,1.6865E5,3.4711E4,1.1E1,1.1E1,2.5312E4,3.5494E4,3.68078E5,3.68509E5,2.8756E4,4.034E4,1.20121E5,1.27371E5,7.1941E4,9.6709E4,3.3116E4,1.595E3,2.0341E4,4.971E3,7.573E3,2.7921E4,3.5579E5,1.2288E4,1.4928E4,3.53581E5,2.3812E4,4.944E3,2.288E4,1.746E4,7.7399E4,4.2722E4,5.6792E4,7.0579E4,3.6112E4,3.5829E4,3.6842E4,5.9867E4,1.72E4,1.5916E4,7.65E2,8.3E2],"tree_param":{"num_deleted":"0","num_feature":"40","num_nodes":"51","size_leaf_vector":"0"}},{"base_weights":[2.802668E2,2.3412335E2,6.3897955E2,1.9643466E2,3.6339722E2,6.346983E2,2.8555676E4,3.3164362E2,1.8273947E2,4.5866678E2,3.0236765E2,5.9216473E2,1.140021E3,5.352525E2,5.419646E4,3.8111887E2,2.6232642E2,1.4687431E2,2.1780989E2,5.583469E2,3.3516183E2,4.129673E2,2.7390402E2,4.876728E2,7.3890765E2,8.1359357E2,1.4655255E3,2.0503197E2,4.1139288E2,1.9674564E2,3.0129437E2,1.2737917E2,1.8485666E2,2.3698459E2,1.1979887E2,2.8712433E2,6.282164E2,1.6122528E2,3.678121E2,3.6672617E2,5.0529797E2,2.263145E2,3.2147513E2,4.198475E2,6.5158356E2,5.9071826E2,9.0182416E2,1.1256508E3,6.8924963E2,1.389547E3,5.443391E3],"categories":[],"categories_nodes":[],"categories_segments":[],"categories_sizes":[],"default_left":[1,1,1,1,1,1,1,1,1,1,1,1,1,0,0,1,1,1,1,1,1,1,1,1,1,1,1,0,0,0,0,0,0,0,0,0,0,0,0,0,0,0,0,0,0,0,0,0,0,0,0],"id":6,"left_children":[1,3,5,7,9,11,13,15,17,19,21,23,25,-1,-1,27,29,31,33,35,37,39,41,43,45,47,49,-1,-1,-1,-1,-1,-1,-1,-1,-1,-1,-1,-1,-1,-1,-1,-1,-1,-1,-1,-1,-1,-1,-1,-1],"loss_changes":[2.1805195E10,5.686817E9,1.7927205E10,1.6734167E9,1.5317852E9,3.2259645E9,1.64957E10,2.8495462E8,1.03215514E9,1.2663296E9,5.0546995E8,2.122879E9,1.2370872E9,0E0,0E0,2.5845709E8,8.841626E7,3.0040064E8,7.797207E8,1.078616E9,2.608937E8,1.4015232E8,2.890967E8,8.989143E8,1.3898342E9,2.2509338E8,1.7556603E9,0E0,0E0,0E0,0E0,0E0,0E0,0E0,0E0,0E0,0E0,0E0,0E0,0E0,0E0,0E0,0E0,0E0,0E0,0E0,0E0,0E0,0E0,0E0,0E0],"parents":[2147483647,0,0,1,1,2,2,3,3,4,4,5,5,6,6,7,7,8,8,9,9,10,10,11,11,12,12,15,15,16,16,17,17,18,18,19,19,20,20,21,21,22,22,23,23,24,24,25,25,26,26],"right_children":[2,4,6,8,10,12,14,16,18,20,22,24,26,-1,-1,28,30,32,34,36,38,40,42,44,46,48,50,-1,-1,-1,-1,-1,-1,-1,-1,-1,-1,-1,-1,-1,-1,-1,-1,-1,-1,-1,-1,-1,-1,-1,-1],"split_conditions":[1.03315E2,7.7535E1,1.21295E4,8.5E0,1.6415E1,1.7124E2,2.5E0,1.6404999E1,1.576145E3,2.4999999E-2,9.5E0,1.65E1,1.90401E3,5.352525E1,5.419646E3,3.4989998E1,5.7225E1,1.75E1,1.85E-1,-4.4399996E0,-4.715E0,1.75E1,1.55E1,2.036125E3,1.78561E3,1.15E1,3.9082E2,2.0503197E1,4.113929E1,1.9674564E1,3.0129438E1,1.2737918E1,1.8485666E1,2.369846E1,1.1979887E1,2.8712433E1,6.2821636E1,1.6122528E1,3.678121E1,3.667262E1,5.0529797E1,2.263145E1,3.2147514E1,4.1984753E1,6.5158356E1,5.9071827E1,9.018242E1,1.1256508E2,6.8924965E1,1.389547E2,5.443391E2],"split_indices":[2,2,2,1,35,2,0,35,38,39,1,8,38,0,0,2,2,8,39,36,36,8,8,38,38,1,2,0,0,0,0,0,0,0,0,0,0,0,0,0,0,0,0,0,0,0,0,0,0,0,0],"split_type":[0,0,0,0,0,0,0,0,0,0,0,0,0,0,0,0,0,0,0,0,0,0,0,0,0,0,0,0,0,0,0,0,0,0,0,0,0,0,0,0,0,0,0,0,0,0,0,0,0,0,0],"sum_hessian":[1.317364E6,1.167219E6,1.50145E5,9.03743E5,2.63476E5,1.50123E5,2.2E1,8.3118E4,8.20625E5,1.02876E5,1.606E5,1.3847E5,1.1653E4,1.1E1,1.1E1,4.8498E4,3.462E4,4.05718E5,4.14907E5,5.6927E4,4.5949E4,3.2869E4,1.27731E5,8.0881E4,5.7589E4,5.82E3,5.833E3,7.116E3,4.1382E4,1.2906E4,2.1714E4,2.6811E5,1.37608E5,3.47016E5,6.7891E4,1.1662E4,4.5265E4,7.263E3,3.8686E4,2.1904E4,1.0965E4,6.3856E4,6.3875E4,5.7211E4,2.367E4,3.016E4,2.7429E4,1.656E3,4.164E3,5.725E3,1.08E2],"tree_param":{"num_deleted":"0","num_feature":"40","num_nodes":"51","size_leaf_vector":"0"}},{"base_weights":[2.5224548E2,1.8624915E2,4.571266E2,3.048411E2,1.6943716E2,4.5529907E2,2.5938072E4,3.484447E2,2.2631476E2,1.3281969E2,2.0657343E2,3.8419965E2,6.876007E2,4.8618774E2,4.9228453E4,2.4261829E2,3.8912436E2,1.5209909E2,2.5965192E2,1.1971442E2,1.9496236E2,2.3081212E2,1.4838593E2,3.198018E2,4.8821524E2,8.59325E2,5.206717E2,2.8264783E2,1.7015955E2,4.661311E2,3.0655493E2,1.0973693E2,1.8429636E2,1.9756412E2,2.9876083E2,9.511345E1,1.5104517E2,2.6531897E2,1.11743324E2,3.3678903E2,2.0423656E2,1.1319476E2,1.7355573E2,2.6306982E2,3.9934595E2,4.2358398E2,6.178881E2,1.0836526E3,5.475276E2,6.8788245E2,4.222014E2],"categories":[],"categories_nodes":[],"categories_segments":[],"categories_sizes":[],"default_left":[1,1,1,1,1,1,1,1,1,1,1,1,1,0,0,1,1,1,1,1,1,1,1,1,1,1,1,0,0,0,0,0,0,0,0,0,0,0,0,0,0,0,0,0,0,0,0,0,0,0,0],"id":7,"left_children":[1,3,5,7,9,11,13,15,17,19,21,23,25,-1,-1,27,29,31,33,35,37,39,41,43,45,47,49,-1,-1,-1,-1,-1,-1,-1,-1,-1,-1,-1,-1,-1,-1,-1,-1,-1,-1,-1,-1,-1,-1,-1,-1],"loss_changes":[1.7812537E10,1.9865477E9,1.4934274E10,4.2352128E8,1.1866911E9,5.300519E9,1.3610101E10,3.423365E8,1.09248E8,3.578368E8,6.110515E8,1.6458506E9,2.1554463E9,0E0,0E0,6.4020864E7,3.651799E8,1.8657664E7,7.394982E7,2.7969024E8,4.480425E8,8.613591E8,1.1283789E8,6.8479795E8,7.872164E8,2.5922621E9,6.276792E8,0E0,0E0,0E0,0E0,0E0,0E0,0E0,0E0,0E0,0E0,0E0,0E0,0E0,0E0,0E0,0E0,0E0,0E0,0E0,0E0,0E0,0E0,0E0,0E0],"parents":[2147483647,0,0,1,1,2,2,3,3,4,4,5,5,6,6,7,7,8,8,9,9,10,10,11,11,12,12,15,15,16,16,17,17,18,18,19,19,20,20,21,21,22,22,23,23,24,24,25,25,26,26],"right_children":[2,4,6,8,10,12,14,16,18,20,22,24,26,-1,-1,28,30,32,34,36,38,40,42,44,46,48,50,-1,-1,-1,-1,-1,-1,-1,-1,-1,-1,-1,-1,-1,-1,-1,-1,-1,-1,-1,-1,-1,-1,-1,-1],"split_conditions":[8.3994995E1,1.85E1,1.21295E4,1.7425E1,5.9995003E1,1.20515E2,2.5E0,5.3585E1,5.7190002E1,2.04677E3,5.5E-2,5E-1,1.6485E1,4.8618774E1,4.922845E3,1.5E-2,1.5E-2,5E-1,5E-1,1.6855E1,1.823E1,1.5745E1,1.45E1,1.65E1,1.75E1,1.5E-2,1.25E1,2.8264784E1,1.7015955E1,4.661311E1,3.0655493E1,1.0973693E1,1.8429636E1,1.9756413E1,2.9876083E1,9.511345E0,1.5104517E1,2.6531897E1,1.1174333E1,3.3678905E1,2.0423656E1,1.1319476E1,1.7355574E1,2.6306982E1,3.9934597E1,4.23584E1,6.1788815E1,1.0836526E2,5.4752758E1,6.8788246E1,4.222014E1],"split_indices":[2,1,2,35,2,2,0,2,2,38,39,7,35,0,0,39,39,7,7,36,35,35,8,8,8,39,1,0,0,0,0,0,0,0,0,0,0,0,0,0,0,0,0,0,0,0,0,0,0,0,0],"split_type":[0,0,0,0,0,0,0,0,0,0,0,0,0,0,0,0,0,0,0,0,0,0,0,0,0,0,0,0,0,0,0,0,0,0,0,0,0,0,0,0,0,0,0,0,0,0,0,0,0,0,0],"sum_hessian":[1.317364E6,9.96404E5,3.2096E5,1.23713E5,8.72691E5,3.20938E5,2.2E1,7.9542E4,4.4171E4,4.39417E5,4.33274E5,2.45731E5,7.5207E4,1.1E1,1.1E1,2.2088E4,5.7454E4,1.3693E4,3.0478E4,3.6289E5,7.6527E4,3.05861E5,1.27413E5,1.51771E5,9.396E4,3.7069E4,3.8138E4,1.4226E4,7.862E3,2.9726E4,2.7728E4,5.915E3,7.778E3,1.1781E4,1.8697E4,2.03279E5,1.59611E5,4.1467E4,3.506E4,6.132E4,2.44541E5,5.3132E4,7.4281E4,8.8591E4,6.318E4,6.2709E4,3.1251E4,2.1557E4,1.5512E4,1.4133E4,2.4005E4],"tree_param":{"num_deleted":"0","num_feature":"40","num_nodes":"51","size_leaf_vector":"0"}},{"base_weights":[2.2702531E2,1.9086151E2,5.357094E2,1.6011983E2,3.0143796E2,5.3187164E2,2.3560416E4,4.7910846E2,1.5576732E2,3.6454913E2,2.2482903E2,6.256316E2,3.408955E2,4.4162054E2,4.4715844E4,6.0746985E2,2.9290268E2,1.3859035E2,2.2837521E2,4.3367978E2,2.5172978E2,2.603026E2,1.6378795E2,8.377461E2,4.7707068E2,4.661506E2,2.5920554E2,2.881884E2,6.695257E2,3.961353E2,1.8510164E2,1.0652123E2,1.7160025E2,3.0040262E2,1.2334336E2,2.3957697E2,5.0004465E2,3.317954E2,2.0211728E2,3.546048E2,2.372144E2,1.2326217E2,1.8909389E2,8.255794E2,5.652988E3,3.619851E2,5.9485266E2,3.4651068E2,5.514018E2,1.8073726E2,3.376094E2],"categories":[],"categories_nodes":[],"categories_segments":[],"categories_sizes":[],"default_left":[1,1,1,1,1,1,1,1,1,1,1,1,1,0,0,1,1,1,1,1,1,1,1,1,1,1,1,0,0,0,0,0,0,0,0,0,0,0,0,0,0,0,0,0,0,0,0,0,0,0,0],"id":8,"left_children":[1,3,5,7,9,11,13,15,17,19,21,23,25,-1,-1,27,29,31,33,35,37,39,41,43,45,47,49,-1,-1,-1,-1,-1,-1,-1,-1,-1,-1,-1,-1,-1,-1,-1,-1,-1,-1,-1,-1,-1,-1,-1,-1],"loss_changes":[1.4705902E10,4.0084644E9,1.2194902E10,1.2809974E9,1.2401623E9,2.4730993E9,1.1229277E10,2.9667994E8,1.1352556E9,1.0968515E9,2.5086003E8,2.918957E9,4.6529587E8,0E0,0E0,1.454546E8,5.634861E7,7.792507E8,1.3174067E9,1.1232707E9,2.1221427E8,1.594706E8,4.365555E7,2.2308413E9,7.383419E8,1.8292992E8,1.69328E8,0E0,0E0,0E0,0E0,0E0,0E0,0E0,0E0,0E0,0E0,0E0,0E0,0E0,0E0,0E0,0E0,0E0,0E0,0E0,0E0,0E0,0E0,0E0,0E0],"parents":[2147483647,0,0,1,1,2,2,3,3,4,4,5,5,6,6,7,7,8,8,9,9,10,10,11,11,12,12,15,15,16,16,17,17,18,18,19,19,20,20,21,21,22,22,23,23,24,24,25,25,26,26],"right_children":[2,4,6,8,10,12,14,16,18,20,22,24,26,-1,-1,28,30,32,34,36,38,40,42,44,46,48,50,-1,-1,-1,-1,-1,-1,-1,-1,-1,-1,-1,-1,-1,-1,-1,-1,-1,-1,-1,-1,-1,-1,-1,-1],"split_conditions":[1.05165E2,7.8945E1,1.21295E4,1.0735E1,1.7715E1,2.4999999E-2,2.5E0,2.4999999E-2,2.057685E3,3.5E-2,1.5E-2,1.6205E1,1.75E1,4.4162056E1,4.4715845E3,1.8548401E3,2.45E-1,1.7965E1,1.823E1,1.734665E3,1.85E1,6.5E0,1.35E1,3.965E2,1.55E1,1.45E1,1.55E1,2.8818838E1,6.695257E1,3.9613533E1,1.8510164E1,1.0652123E1,1.7160025E1,3.0040262E1,1.2334336E1,2.3957697E1,5.0004467E1,3.3179543E1,2.021173E1,3.546048E1,2.3721441E1,1.2326217E1,1.890939E1,8.2557945E1,5.6529877E2,3.6198513E1,5.9485268E1,3.465107E1,5.514018E1,1.8073727E1,3.376094E1],"split_indices":[2,2,2,35,35,39,0,39,38,39,39,35,1,0,0,38,39,36,35,38,1,1,8,2,8,8,8,0,0,0,0,0,0,0,0,0,0,0,0,0,0,0,0,0,0,0,0,0,0,0,0],"split_type":[0,0,0,0,0,0,0,0,0,0,0,0,0,0,0,0,0,0,0,0,0,0,0,0,0,0,0,0,0,0,0,0,0,0,0,0,0,0,0,0,0,0,0,0,0,0,0,0,0,0,0],"sum_hessian":[1.317364E6,1.179215E6,1.38149E5,9.22696E5,2.56519E5,1.38127E5,2.2E1,1.2419E4,9.10277E5,1.40648E5,1.15871E5,9.2642E4,4.5485E4,1.1E1,1.1E1,7.35E3,5.069E3,7.36132E5,1.74145E5,8.7208E4,5.344E4,7.3281E4,4.259E4,3.8157E4,5.4485E4,1.7953E4,2.7532E4,1.197E3,6.153E3,2.588E3,2.481E3,3.73389E5,3.62743E5,1.03302E5,7.0843E4,2.2221E4,6.4987E4,2.0443E4,3.2997E4,1.441E4,5.8871E4,1.6374E4,2.6216E4,3.8062E4,9.5E1,2.756E4,2.6925E4,7.472E3,1.0481E4,1.3762E4,1.377E4],"tree_param":{"num_deleted":"0","num_feature":"40","num_nodes":"51","size_leaf_vector":"0"}},{"base_weights":[2.0432721E2,1.7177573E2,4.8217755E2,1.3383752E2,2.4571077E2,4.786909E2,2.140071E4,1.06427055E2,1.7220511E2,3.469576E2,2.1020844E2,4.478071E2,1.00400287E3,4.0113867E2,4.061689E4,1.0046019E2,2.3732654E2,3.6752588E2,1.6078844E2,2.6564728E2,4.0501572E2,6.310516E2,2.0393683E2,3.7123132E2,6.01377E2,1.2295E3,4.9433987E2,2.066147E4,4.497298E4,6.190515E1,1.175688E2,1.3655482E2,3.481759E2,2.320212E2,4.253206E2,1.5061966E2,3.7279834E2,2.4150122E2,3.8119882E2,4.7589395E2,3.1851862E2,8.51832E2,3.6644324E2,2.3471344E2,1.4090196E2,2.877694E2,4.7603845E2,4.825707E2,7.7594946E2,1.5857148E3,7.038051E2,8.893423E2,3.658749E2],"categories":[],"categories_nodes":[],"categories_segments":[],"categories_sizes":[],"default_left":[1,1,1,1,1,1,1,1,1,1,1,1,1,0,1,1,1,1,1,1,1,1,1,1,1,1,1,0,0,0,0,0,0,0,0,0,0,0,0,0,0,0,0,0,0,0,0,0,0,0,0,0,0],"id":9,"left_children":[1,3,5,7,9,11,13,15,17,19,21,23,25,-1,27,29,31,33,35,37,39,41,43,45,47,49,51,-1,-1,-1,-1,-1,-1,-1,-1,-1,-1,-1,-1,-1,-1,-1,-1,-1,-1,-1,-1,-1,-1,-1,-1,-1,-1],"loss_changes":[1.1914744E10,3.3076224E9,1.0065904E10,8.1957786E8,1.4373396E9,2.2404854E9,9.264932E9,3.550249E8,7.241093E8,4.89984E8,7.8132326E8,1.533952E9,8.807716E8,0E0,1.139241E8,2.8676915E8,2.2131789E8,1.4034278E8,6.614103E8,1.2058317E8,3.711703E8,2.5364083E8,5.659228E8,7.6136755E8,8.9987994E8,9.943593E8,1.1912595E8,0E0,0E0,0E0,0E0,0E0,0E0,0E0,0E0,0E0,0E0,0E0,0E0,0E0,0E0,0E0,0E0,0E0,0E0,0E0,0E0,0E0,0E0,0E0,0E0,0E0,0E0],"parents":[2147483647,0,0,1,1,2,2,3,3,4,4,5,5,6,6,7,7,8,8,9,9,10,10,11,11,12,12,14,14,15,15,16,16,17,17,18,18,19,19,20,20,21,21,22,22,23,23,24,24,25,25,26,26],"right_children":[2,4,6,8,10,12,14,16,18,20,22,24,26,-1,28,30,32,34,36,38,40,42,44,46,48,50,52,-1,-1,-1,-1,-1,-1,-1,-1,-1,-1,-1,-1,-1,-1,-1,-1,-1,-1,-1,-1,-1,-1,-1,-1,-1,-1],"split_conditions":[1.05165E2,7.0994995E1,1.21295E4,1.65E1,1.75E1,1.8487E2,2.5E0,5E-1,1.2805E1,1.45E1,1.0735E1,1.75E1,1.5E-2,4.011387E1,1.25E1,4.9864998E1,2.046685E3,4.3965E1,5E-1,2.141305E3,1.5E-2,3.5E-2,3.5E-2,5E-1,1.856285E3,1.7325E1,1.45E1,2.0661472E3,4.4972983E3,6.190515E0,1.1756881E1,1.3655482E1,3.4817593E1,2.320212E1,4.253206E1,1.5061966E1,3.7279835E1,2.4150122E1,3.8119884E1,4.7589397E1,3.1851862E1,8.51832E1,3.6644325E1,2.3471344E1,1.4090197E1,2.8776941E1,4.7603848E1,4.8257072E1,7.759495E1,1.5857149E2,7.0380516E1,8.893423E1,3.658749E1],"split_indices":[2,2,2,8,1,2,0,31,35,8,35,8,39,0,8,2,38,2,19,38,39,39,39,7,38,35,1,0,0,0,0,0,0,0,0,0,0,0,0,0,0,0,0,0,0,0,0,0,0,0,0,0,0],"split_type":[0,0,0,0,0,0,0,0,0,0,0,0,0,0,0,0,0,0,0,0,0,0,0,0,0,0,0,0,0,0,0,0,0,0,0,0,0,0,0,0,0,0,0,0,0,0,0,0,0,0,0,0,0],"sum_hessian":[1.317364E6,1.179215E6,1.38149E5,7.79324E5,3.99891E5,1.38127E5,2.2E1,4.54573E5,3.24751E5,1.03816E5,2.96075E5,1.30459E5,7.668E3,1.1E1,1.1E1,4.34757E5,1.9816E4,1.7932E4,3.06819E5,4.325E4,6.0566E4,4.346E3,2.91729E5,8.7054E4,4.3405E4,5.315E3,2.353E3,3E0,8E0,1.33627E5,3.0113E5,1.0381E4,9.435E3,5.363E3,1.2569E4,2.92778E5,1.4041E4,3.5777E4,7.473E3,3.3286E4,2.728E4,2.368E3,1.978E3,1.9602E5,9.5709E4,4.8464E4,3.859E4,2.583E4,1.7575E4,3.167E3,2.148E3,5.76E2,1.777E3],"tree_param":{"num_deleted":"0","num_feature":"40","num_nodes":"53","size_leaf_vector":"0"}},{"base_weights":[1.839003E2,1.3462314E2,3.3419907E2,2.448775E2,1.2360465E2,3.3283936E2,1.9547752E4,2.0588052E2,3.2255396E2,9.322015E1,1.5433368E2,2.8476318E2,5.41923E2,3.6436758E2,3.7102156E4,8.5682076E1,2.199895E2,3.708324E2,2.4978008E2,1.12931694E2,5.6282978E1,1.2912387E2,2.0480846E2,3.4663123E2,1.9978008E2,3.943804E2,7.108772E2,1.818144E2,4.0501706E2,2.1233088E4,4.2382555E4,1.708446E2,6.844167E1,2.584747E2,1.6617155E2,1.6271936E2,3.9779865E2,2.8630426E2,1.800037E2,1.7041422E2,9.693911E1,9.458445E0,6.6876945E1,1.2279888E2,2.90961E2,4.3764862E2,1.9225041E2,4.3867133E2,2.5021992E2,2.8315033E2,1.7244896E2,4.6853644E2,1.986511E2,6.748007E2,2.0336807E3],"categories":[],"categories_nodes":[],"categories_segments":[],"categories_sizes":[],"default_left":[1,1,1,1,1,1,1,1,1,1,1,1,1,1,1,1,1,1,1,1,1,1,1,1,1,1,1,0,0,0,0,0,0,0,0,0,0,0,0,0,0,0,0,0,0,0,0,0,0,0,0,0,0,0,0],"id":10,"left_children":[1,3,5,7,9,11,13,15,17,19,21,23,25,27,29,31,33,35,37,39,41,43,45,47,49,51,53,-1,-1,-1,-1,-1,-1,-1,-1,-1,-1,-1,-1,-1,-1,-1,-1,-1,-1,-1,-1,-1,-1,-1,-1,-1,-1,-1,-1],"loss_changes":[9.756754E9,1.205205E9,8.49118E9,2.7297536E8,8.421325E8,3.26921E9,7.731798E9,1.017559E8,1.0575232E8,3.3020006E8,5.705902E8,1.3903094E9,1.5154401E9,1.5410375E4,1.0562765E8,9.247004E6,1.1119667E8,1.0156365E8,3.0576704E7,2.7183283E8,7.828269E7,3.0609715E8,4.3666995E8,1.3578588E9,2.5381478E8,4.7106253E8,1.3512632E9,0E0,0E0,0E0,0E0,0E0,0E0,0E0,0E0,0E0,0E0,0E0,0E0,0E0,0E0,0E0,0E0,0E0,0E0,0E0,0E0,0E0,0E0,0E0,0E0,0E0,0E0,0E0,0E0],"parents":[2147483647,0,0,1,1,2,2,3,3,4,4,5,5,6,6,7,7,8,8,9,9,10,10,11,11,12,12,13,13,14,14,15,15,16,16,17,17,18,18,19,19,20,20,21,21,22,22,23,23,24,24,25,25,26,26],"right_children":[2,4,6,8,10,12,14,16,18,20,22,24,26,28,30,32,34,36,38,40,42,44,46,48,50,52,54,-1,-1,-1,-1,-1,-1,-1,-1,-1,-1,-1,-1,-1,-1,-1,-1,-1,-1,-1,-1,-1,-1,-1,-1,-1,-1,-1,-1],"split_conditions":[8.3295E1,5.5E0,1.21295E4,1.75E1,5.9995003E1,1.26265E2,2.5E0,3.663E1,1.6525002E1,3.5E-2,1.75E1,1.7715E1,5E-1,1.25E1,1.35E1,-3.0349998E0,1.5E-2,3.4989998E1,1.5E-2,1.5745E1,3.7989998E1,5E-1,1.2805E1,1.5E-2,6.5E0,6.5E-2,2.50785E2,1.818144E1,4.0501705E1,2.1233088E3,4.2382554E3,1.7084461E1,6.844167E0,2.5847471E1,1.6617155E1,1.6271936E1,3.9779865E1,2.8630426E1,1.800037E1,1.7041422E1,9.693912E0,9.458445E-1,6.6876945E0,1.2279888E1,2.90961E1,4.3764862E1,1.9225042E1,4.3867134E1,2.5021994E1,2.8315033E1,1.7244896E1,4.6853645E1,1.986511E1,6.748007E1,2.0336807E2],"split_indices":[2,1,2,8,2,2,0,2,35,39,8,35,7,8,8,37,39,2,39,35,2,31,35,39,1,39,2,0,0,0,0,0,0,0,0,0,0,0,0,0,0,0,0,0,0,0,0,0,0,0,0,0,0,0,0],"split_type":[0,0,0,0,0,0,0,0,0,0,0,0,0,0,0,0,0,0,0,0,0,0,0,0,0,0,0,0,0,0,0,0,0,0,0,0,0,0,0,0,0,0,0,0,0,0,0,0,0,0,0,0,0,0,0],"sum_hessian":[1.317364E6,9.92096E5,3.25268E5,9.0137E4,9.01959E5,3.25246E5,2.2E1,6.0012E4,3.0125E4,4.53524E5,4.48435E5,2.64443E5,6.0803E4,1.1E1,1.1E1,6.305E3,5.3707E4,1.8108E4,1.2017E4,2.95714E5,1.5781E5,2.99068E5,1.49367E5,1.53032E5,1.11411E5,3.246E4,2.8343E4,3E0,8E0,4E0,7E0,1.06E3,5.245E3,3.1312E4,2.2395E4,2.078E3,1.603E4,7.886E3,4.131E3,6.4363E4,2.31351E5,2.9117E4,1.28693E5,2.87821E5,1.1247E4,7.642E3,1.41725E5,7.8289E4,7.4743E4,2.7504E4,8.3907E4,2.354E4,8.92E3,2.7592E4,7.51E2],"tree_param":{"num_deleted":"0","num_feature":"40","num_nodes":"55","size_leaf_vector":"0"}},{"base_weights":[1.6551572E2,1.4016191E2,4.076579E2,2.4086365E2,1.1987701E2,4.0443704E2,1.7872117E4,1.6443047E2,2.7906982E2,9.021932E1,1.58737E2,3.3886896E2,6.1570404E2,3.3282108E2,3.392207E4,1.4725906E2,2.7569272E2,2.1671594E2,3.3632568E2,5.9673855E1,1.1201209E2,5.24909E2,1.5403804E2,9.180617E2,3.2026807E2,6.053297E2,4.7989243E3,1.8826015E2,3.8156903E2,2.1214979E4,3.996785E4,8.1792534E1,1.6974103E2,3.543789E2,1.2045932E2,1.4713005E2,2.5147845E2,4.2310556E2,2.697994E2,4.4222107E1,8.8104836E1,1.0614118E2,2.667879E2,7.20944E2,2.8953418E2,1.1031742E2,1.8589163E2,1.4682921E3,4.771863E2,4.3006647E2,2.399327E2,3.946873E2,7.381283E2,-1.3738082E3,6.697322E3],"categories":[],"categories_nodes":[],"categories_segments":[],"categories_sizes":[],"default_left":[1,1,1,1,1,1,1,1,1,1,1,1,1,1,1,1,1,1,1,1,1,1,1,1,1,1,1,0,0,0,0,0,0,0,0,0,0,0,0,0,0,0,0,0,0,0,0,0,0,0,0,0,0,0,0],"id":11,"left_children":[1,3,5,7,9,11,13,15,17,19,21,23,25,27,29,31,33,35,37,39,41,43,45,47,49,51,53,-1,-1,-1,-1,-1,-1,-1,-1,-1,-1,-1,-1,-1,-1,-1,-1,-1,-1,-1,-1,-1,-1,-1,-1,-1,-1,-1,-1],"loss_changes":[8.087548E9,2.435928E9,7.0162985E9,5.8381414E8,1.1439165E9,1.7291223E9,6.4633216E9,1.272695E8,4.758313E8,3.7472614E8,7.391478E8,1.02614016E9,1.2802458E9,1.2730375E4,7.397478E7,8.495258E7,1.0876608E8,1.5432525E8,4.010619E8,1.029705E8,2.9850803E8,2.5094054E8,5.907282E8,7.183158E8,8.141435E8,8.2477466E8,8.646367E8,0E0,0E0,0E0,0E0,0E0,0E0,0E0,0E0,0E0,0E0,0E0,0E0,0E0,0E0,0E0,0E0,0E0,0E0,0E0,0E0,0E0,0E0,0E0,0E0,0E0,0E0,0E0,0E0],"parents":[2147483647,0,0,1,1,2,2,3,3,4,4,5,5,6,6,7,7,8,8,9,9,10,10,11,11,12,12,13,13,14,14,15,15,16,16,17,17,18,18,19,19,20,20,21,21,22,22,23,23,24,24,25,25,26,26],"right_children":[2,4,6,8,10,12,14,16,18,20,22,24,26,28,30,32,34,36,38,40,42,44,46,48,50,52,54,-1,-1,-1,-1,-1,-1,-1,-1,-1,-1,-1,-1,-1,-1,-1,-1,-1,-1,-1,-1,-1,-1,-1,-1,-1,-1,-1,-1],"split_conditions":[1.08009995E2,1.95E1,1.21295E4,1.35E1,6.4945E1,2.088665E3,2.5E0,2.177255E3,1.785925E3,1.45E1,1.0735E1,1.0735E1,3.9082E2,1.35E1,1.45E1,6.0095E1,1.545E1,6.5005005E1,5E-3,3.5135002E1,5E-1,3.5E-2,1.45E1,1.5E-2,1.85E1,1.45E1,3.5E0,1.8826015E1,3.8156902E1,2.1214978E3,3.9967852E3,8.179254E0,1.6974104E1,3.5437893E1,1.2045932E1,1.4713005E1,2.5147846E1,4.231056E1,2.697994E1,4.4222107E0,8.810484E0,1.0614119E1,2.6678791E1,7.20944E1,2.8953419E1,1.1031742E1,1.8589163E1,1.4682921E2,4.771863E1,4.300665E1,2.3993269E1,3.946873E1,7.381283E1,-1.3738083E2,6.697322E2],"split_indices":[2,1,2,8,2,38,0,38,38,8,35,35,2,8,8,2,35,2,39,36,19,39,8,39,1,8,0,0,0,0,0,0,0,0,0,0,0,0,0,0,0,0,0,0,0,0,0,0,0,0,0,0,0,0,0],"split_type":[0,0,0,0,0,0,0,0,0,0,0,0,0,0,0,0,0,0,0,0,0,0,0,0,0,0,0,0,0,0,0,0,0,0,0,0,0,0,0,0,0,0,0,0,0,0,0,0,0,0,0,0,0,0,0],"sum_hessian":[1.317364E6,1.192503E6,1.24861E5,1.99936E5,9.92567E5,1.24839E5,2.2E1,6.6635E4,1.33301E5,5.62939E5,4.29628E5,9.5273E4,2.9566E4,1.1E1,1.1E1,5.7728E4,8.907E3,6.3812E4,6.9489E4,2.344E5,3.28539E5,5.442E3,4.24186E5,2.963E3,9.231E4,2.9494E4,7.2E1,4E0,7E0,5E0,6E0,1.4758E4,4.297E4,5.91E3,2.997E3,2.126E4,4.2552E4,3.0152E4,3.9337E4,1.51866E5,8.2534E4,3.16534E5,1.2005E4,2.968E3,2.474E3,1.78791E5,2.45395E5,1.317E3,1.646E3,3.9001E4,5.3309E4,1.1406E4,1.8088E4,1.7E1,5.5E1],"tree_param":{"num_deleted":"0","num_feature":"40","num_nodes":"55","size_leaf_vector":"0"}},{"base_weights":[1.489698E2,1.072085E2,2.703486E2,1.2692425E2,6.0973526E1,2.692508E2,1.6353394E4,1.867997E2,1.0109212E2,8.719829E1,3.7217106E1,2.4399947E2,5.621698E2,3.0428754E2,3.1039717E4,7.494631E1,2.720889E2,6.210924E1,1.22154755E2,1.2899681E2,6.1682503E1,2.9371632E1,9.625402E1,3.3693723E2,1.9394638E2,3.7172247E2,7.53574E2,1.7319936E2,3.4818173E2,1.7837242E4,3.54113E4,2.5837278E1,1.0536097E2,1.4917636E2,3.0380176E2,4.2788883E1,8.582761E1,6.7595024E1,1.349586E2,6.642428E1,1.460832E2,6.07911E1,5.333595E2,-4.695647E0,3.8692165E1,8.929175E1,2.6046286E2,4.884008E2,2.5629462E2,1.8646184E2,6.5775256E2,5.220455E2,2.094381E2,6.5089624E2,1.3668849E3],"categories":[],"categories_nodes":[],"categories_segments":[],"categories_sizes":[],"default_left":[1,1,1,1,1,1,1,1,1,1,1,1,1,1,1,1,1,1,1,1,1,1,1,1,1,1,1,0,0,0,0,0,0,0,0,0,0,0,0,0,0,0,0,0,0,0,0,0,0,0,0,0,0,0,0],"id":12,"left_children":[1,3,5,7,9,11,13,15,17,19,21,23,25,27,29,31,33,35,37,39,41,43,45,47,49,51,53,-1,-1,-1,-1,-1,-1,-1,-1,-1,-1,-1,-1,-1,-1,-1,-1,-1,-1,-1,-1,-1,-1,-1,-1,-1,-1,-1,-1],"loss_changes":[6.6776084E9,8.934482E8,5.949612E9,1.06277376E9,1.8254515E8,2.4940114E9,5.41171E9,1.97568E9,3.9413914E8,1.485266E8,7.120672E7,1.444055E9,9.752233E8,8.74325E3,6.094848E7,1.3382387E8,4.579666E8,7.715917E7,2.1769933E8,5.6430144E7,3.6328896E7,4.309152E7,2.0594432E7,1.3271788E9,7.003177E8,3.271748E8,8.39553E8,0E0,0E0,0E0,0E0,0E0,0E0,0E0,0E0,0E0,0E0,0E0,0E0,0E0,0E0,0E0,0E0,0E0,0E0,0E0,0E0,0E0,0E0,0E0,0E0,0E0,0E0,0E0,0E0],"parents":[2147483647,0,0,1,1,2,2,3,3,4,4,5,5,6,6,7,7,8,8,9,9,10,10,11,11,12,12,13,13,14,14,15,15,16,16,17,17,18,18,19,19,20,20,21,21,22,22,23,23,24,24,25,25,26,26],"right_children":[2,4,6,8,10,12,14,16,18,20,22,24,26,28,30,32,34,36,38,40,42,44,46,48,50,52,54,-1,-1,-1,-1,-1,-1,-1,-1,-1,-1,-1,-1,-1,-1,-1,-1,-1,-1,-1,-1,-1,-1,-1,-1,-1,-1,-1,-1],"split_conditions":[8.2335E1,5.5E-2,1.21295E4,1.6415E1,4.45E-1,1.4801999E2,2.5E0,-1.765E0,1.35E1,1.7195E1,4.0575E1,1.5665E1,1.55E1,1.35E1,1.35E1,1.67488E3,4.3895E1,3.3095E1,4.7665E1,4.982E1,1.855E0,4.6864998E1,3.1566498E2,5E-3,5E-1,5E-3,5E-1,1.7319937E1,3.4818172E1,1.7837242E3,3.5411301E3,2.5837278E0,1.0536098E1,1.4917636E1,3.0380177E1,4.278888E0,8.582761E0,6.7595024E0,1.349586E1,6.642428E0,1.4608321E1,6.07911E0,5.333595E1,-4.6956468E-1,3.8692167E0,8.929175E0,2.6046286E1,4.884008E1,2.5629461E1,1.8646185E1,6.577526E1,5.2204548E1,2.094381E1,6.508962E1,1.3668849E2],"split_indices":[2,39,2,35,37,2,0,36,8,35,36,35,8,8,8,38,2,36,2,2,39,2,37,39,22,39,19,0,0,0,0,0,0,0,0,0,0,0,0,0,0,0,0,0,0,0,0,0,0,0,0,0,0,0,0],"split_type":[0,0,0,0,0,0,0,0,0,0,0,0,0,0,0,0,0,0,0,0,0,0,0,0,0,0,0,0,0,0,0,0,0,0,0,0,0,0,0,0,0,0,0,0,0,0,0,0,0,0,0,0,0,0,0],"sum_hessian":[1.317364E6,9.80141E5,3.37223E5,6.8713E5,2.93011E5,3.37201E5,2.2E1,2.07098E5,4.80032E5,1.39269E5,1.53742E5,3.10441E5,2.676E4,1.1E1,1.1E1,8.9597E4,1.17501E5,1.68386E5,3.11646E5,5.2789E4,8.648E4,1.35709E5,1.8033E4,1.08666E5,2.01775E5,1.3415E4,1.3345E4,4E0,7E0,4E0,7E0,3.4268E4,5.5329E4,2.41E4,9.3401E4,9.2798E4,7.5588E4,5.9236E4,2.5241E5,1.1324E4,4.1465E4,8.6318E4,1.62E2,2.9153E4,1.06556E5,1.7301E4,7.32E2,3.7753E4,7.0913E4,1.98572E5,3.203E3,6.963E3,6.452E3,1.1433E4,1.912E3],"tree_param":{"num_deleted":"0","num_feature":"40","num_nodes":"55","size_leaf_vector":"0"}},{"base_weights":[1.340774E2,1.0830957E2,2.983687E2,2.0422281E2,9.608208E1,2.964798E2,1.4951836E4,1.6839142E2,2.7588837E2,7.6182304E1,1.3587796E2,1.8340004E2,3.7744382E2,2.7820364E2,2.837948E4,1.0584458E2,1.9008034E2,2.2074597E2,3.3091006E2,5.3325176E1,1.0868324E2,3.1988553E2,1.25643585E2,2.4166658E2,9.73287E1,3.398112E2,7.946369E2,1.722849E2,3.2924774E2,1.7667725E4,3.3506777E4,2.4782831E1,1.2548789E2,2.2141054E2,1.3715924E2,1.5783849E2,2.4901178E2,4.254966E2,2.568959E2,4.589127E1,1.5358916E2,1.8435223E2,7.574919E1,1.7985887E2,3.637725E2,1.172967E2,3.1195264E2,-1.7656193E1,2.8215817E2,1.7517151E2,6.3708263E1,5.987738E2,2.9524173E2,7.687122E2,7.1242134E3],"categories":[],"categories_nodes":[],"categories_segments":[],"categories_sizes":[],"default_left":[1,1,1,1,1,1,1,1,1,1,1,1,1,1,1,1,1,1,1,1,1,1,1,1,1,1,1,0,0,0,0,0,0,0,0,0,0,0,0,0,0,0,0,0,0,0,0,0,0,0,0,0,0,0,0],"id":13,"left_children":[1,3,5,7,9,11,13,15,17,19,21,23,25,27,29,31,33,35,37,39,41,43,45,47,49,51,53,-1,-1,-1,-1,-1,-1,-1,-1,-1,-1,-1,-1,-1,-1,-1,-1,-1,-1,-1,-1,-1,-1,-1,-1,-1,-1,-1,-1],"loss_changes":[5.5769395E9,1.3354936E9,4.9392026E9,3.3059072E8,7.998413E8,1.6349276E9,4.523848E9,1.1643187E8,1.3013837E8,5.0018688E8,6.340101E8,3.7367526E8,1.63362E9,8.153875E3,6.708019E7,3.519515E7,1.0565094E8,3.8080256E7,1.5026662E8,2.9463782E8,6.9280845E8,1.0894682E8,4.959616E8,4.6657946E8,7.87167E7,1.1016059E9,1.4073559E9,0E0,0E0,0E0,0E0,0E0,0E0,0E0,0E0,0E0,0E0,0E0,0E0,0E0,0E0,0E0,0E0,0E0,0E0,0E0,0E0,0E0,0E0,0E0,0E0,0E0,0E0,0E0,0E0],"parents":[2147483647,0,0,1,1,2,2,3,3,4,4,5,5,6,6,7,7,8,8,9,9,10,10,11,11,12,12,13,13,14,14,15,15,16,16,17,17,18,18,19,19,20,20,21,21,22,22,23,23,24,24,25,25,26,26],"right_children":[2,4,6,8,10,12,14,16,18,20,22,24,26,28,30,32,34,36,38,40,42,44,46,48,50,52,54,-1,-1,-1,-1,-1,-1,-1,-1,-1,-1,-1,-1,-1,-1,-1,-1,-1,-1,-1,-1,-1,-1,-1,-1,-1,-1,-1,-1],"split_conditions":[9.9005005E1,5.5E0,1.21295E4,1.75E1,1.75E1,1.45E1,2.5E0,5.9989998E1,1.80538E3,3.5245003E1,1.2805E1,1.7814999E1,5E-1,1.45E1,1.45E1,3.0135E1,2.4999999E-2,6.48E1,5E-3,5E-1,1.7045E1,1.85552E3,5E-1,-6.275E0,6.5E0,1.2625E1,3.9082E2,1.722849E1,3.2924774E1,1.7667725E3,3.3506777E3,2.4782832E0,1.2548789E1,2.2141054E1,1.3715924E1,1.5783849E1,2.4901178E1,4.2549664E1,2.568959E1,4.589127E0,1.5358916E1,1.8435225E1,7.574919E0,1.7985888E1,3.637725E1,1.1729671E1,3.1195265E1,-1.7656193E0,2.8215818E1,1.751715E1,6.3708262E0,5.987738E1,2.9524174E1,7.687122E1,7.124213E2],"split_indices":[2,1,2,8,8,8,0,2,38,36,35,35,19,8,8,2,39,2,39,19,35,38,19,36,1,35,2,0,0,0,0,0,0,0,0,0,0,0,0,0,0,0,0,0,0,0,0,0,0,0,0,0,0,0,0],"split_type":[0,0,0,0,0,0,0,0,0,0,0,0,0,0,0,0,0,0,0,0,0,0,0,0,0,0,0,0,0,0,0,0,0,0,0,0,0,0,0,0,0,0,0,0,0,0,0,0,0,0,0,0,0,0,0],"sum_hessian":[1.317364E6,1.13876E6,1.78604E5,1.28758E5,1.010002E6,1.78582E5,2.2E1,8.5842E4,4.2916E4,6.73316E5,3.36686E5,7.4514E4,1.04068E5,1.1E1,1.1E1,2.2104E4,6.3738E4,2.1437E4,2.1479E4,3.95308E5,2.78008E5,1.7738E4,3.18948E5,4.4433E4,3.0081E4,9.5459E4,8.609E3,5E0,6E0,5E0,6E0,4.312E3,1.7792E4,4.0034E4,2.3704E4,6.648E3,1.4789E4,9.427E3,1.2052E4,3.68023E5,2.7285E4,8.4305E4,1.93703E5,4.234E3,1.3504E4,3.05273E5,1.3675E4,6.001E3,3.8432E4,9.072E3,2.1009E4,1.4015E4,8.1444E4,8.575E3,3.4E1],"tree_param":{"num_deleted":"0","num_feature":"40","num_nodes":"55","size_leaf_vector":"0"}},{"base_weights":[1.2067451E2,1.0323588E2,3.2648218E2,8.2053604E1,1.6569006E2,3.2349344E2,1.368133E4,1.0081587E2,4.5368435E1,4.82193E2,1.5682712E2,4.1171982E2,1.8045052E2,2.5456271E2,2.5967986E4,1.519444E2,7.973511E1,1.0645068E1,5.7966984E1,6.919667E2,2.5198273E2,1.8601007E2,8.28602E1,5.534999E2,2.5814685E2,2.8884137E2,1.1800702E2,1.579278E2,3.0102655E2,1.7148496E4,3.1929393E4,4.9989697E1,2.217665E2,4.6437763E1,9.775327E1,-1.9795586E1,2.2155382E1,5.437325E1,1.8311755E2,1.7394829E2,7.7711E2,3.9855685E2,1.4383769E2,2.28999E2,1.20866066E2,1.6153255E2,6.180906E1,4.8576196E2,1.1540266E3,2.0572144E2,4.1834744E2,1.613842E2,3.5233344E2,9.211446E1,3.1067786E2],"categories":[],"categories_nodes":[],"categories_segments":[],"categories_sizes":[],"default_left":[1,1,1,1,1,1,1,1,1,1,1,1,1,1,1,1,1,1,1,1,1,1,1,1,1,1,1,0,0,0,0,0,0,0,0,0,0,0,0,0,0,0,0,0,0,0,0,0,0,0,0,0,0,0,0],"id":14,"left_children":[1,3,5,7,9,11,13,15,17,19,21,23,25,27,29,31,33,35,37,39,41,43,45,47,49,51,53,-1,-1,-1,-1,-1,-1,-1,-1,-1,-1,-1,-1,-1,-1,-1,-1,-1,-1,-1,-1,-1,-1,-1,-1,-1,-1,-1,-1],"loss_changes":[4.7279944E9,1.6066232E9,4.102907E9,6.241997E8,8.6273434E8,1.2983132E9,3.7877007E9,6.4669645E8,1.3424486E8,4.044164E8,6.4583885E8,1.3853757E9,2.6562189E8,6.3399375E3,8.337818E7,1.2469414E9,2.5488486E8,2.8626608E7,1.0126342E8,1.9318054E8,6.3284336E7,6.0082176E8,1.4018573E8,1.3453261E9,2.5647386E8,1.160384E8,1.2421594E8,0E0,0E0,0E0,0E0,0E0,0E0,0E0,0E0,0E0,0E0,0E0,0E0,0E0,0E0,0E0,0E0,0E0,0E0,0E0,0E0,0E0,0E0,0E0,0E0,0E0,0E0,0E0,0E0],"parents":[2147483647,0,0,1,1,2,2,3,3,4,4,5,5,6,6,7,7,8,8,9,9,10,10,11,11,12,12,13,13,14,14,15,15,16,16,17,17,18,18,19,19,20,20,21,21,22,22,23,23,24,24,25,25,26,26],"right_children":[2,4,6,8,10,12,14,16,18,20,22,24,26,28,30,32,34,36,38,40,42,44,46,48,50,52,54,-1,-1,-1,-1,-1,-1,-1,-1,-1,-1,-1,-1,-1,-1,-1,-1,-1,-1,-1,-1,-1,-1,-1,-1,-1,-1,-1,-1],"split_conditions":[1.13175E2,7.7955E1,1.21295E4,3.5E-2,1.0775E1,1.5E-2,2.5E0,1.6415E1,4.9835E1,3.5E-2,5.5E-2,1.7325E1,1.45E1,1.45E1,1.55E1,-4.4399996E0,1.35E1,3.4864998E1,5E-1,1.854625E3,2.05E-1,1.8555E1,3.5E0,1.8164E2,1.85E1,1.35E1,5E-1,1.579278E1,3.0102655E1,1.7148496E3,3.1929392E3,4.9989696E0,2.217665E1,4.6437764E0,9.775328E0,-1.9795586E0,2.2155383E0,5.437325E0,1.8311756E1,1.7394829E1,7.7711E1,3.9855686E1,1.4383769E1,2.28999E1,1.2086607E1,1.6153255E1,6.180906E0,4.85762E1,1.15402664E2,2.0572144E1,4.1834743E1,1.613842E1,3.5233345E1,9.211447E0,3.1067785E1],"split_indices":[2,2,2,39,35,39,0,35,2,39,39,35,1,8,8,36,8,2,25,38,39,35,1,2,8,8,25,0,0,0,0,0,0,0,0,0,0,0,0,0,0,0,0,0,0,0,0,0,0,0,0,0,0,0,0],"split_type":[0,0,0,0,0,0,0,0,0,0,0,0,0,0,0,0,0,0,0,0,0,0,0,0,0,0,0,0,0,0,0,0,0,0,0,0,0,0,0,0,0,0,0,0,0,0,0,0,0,0,0,0,0,0,0],"sum_hessian":[1.317364E6,1.214461E6,1.02903E5,9.06881E5,3.0758E5,1.02881E5,2.2E1,6.0001E5,3.06871E5,8.377E3,2.99203E5,6.3632E4,3.9249E4,1.1E1,1.1E1,1.75165E5,4.24845E5,8.1699E4,2.25172E5,4.382E3,3.995E3,2.14552E5,8.4651E4,3.3085E4,3.0547E4,1.4345E4,2.4904E4,5E0,6E0,6E0,5E0,7.12E4,1.03965E5,1.49175E5,2.7567E5,2.2416E4,5.9283E4,2.18888E5,6.284E3,6.19E2,3.763E3,1.695E3,2.3E3,1.29254E5,8.5298E4,1.7868E4,6.6783E4,2.9733E4,3.352E3,2.3017E4,7.53E3,4.771E3,9.574E3,2.1955E4,2.949E3],"tree_param":{"num_deleted":"0","num_feature":"40","num_nodes":"55","size_leaf_vector":"0"}},{"base_weights":[1.0861127E2,9.3570305E1,3.031993E2,1.6821472E2,7.776972E1,3.0022058E2,1.2528574E4,1.4112053E2,2.4945203E2,4.655837E1,9.926606E1,2.0023541E2,4.2156924E2,2.3293106E2,2.378017E4,8.5719124E1,1.676087E2,1.9219408E2,3.1864548E2,7.5336957E0,5.817297E1,1.2161477E2,5.6282402E1,2.5065956E2,6.7483246E1,4.0182358E2,1.5221713E3,1.1630289E2,2.5888458E2,1.652288E4,3.0635797E4,3.2952435E1,1.0596685E2,1.1335831E2,1.9474811E2,1.2441292E2,2.2840984E2,2.9611575E2,6.2406305E2,-8.9995E0,3.371648E1,5.601962E1,2.8127722E2,1.1359033E2,3.4849283E2,5.112208E1,1.8475378E2,1.8587236E2,3.8134882E2,4.2269127E1,2.58512E2,2.8615634E2,5.643104E2,1.6773505E3,-1.6107638E3],"categories":[],"categories_nodes":[],"categories_segments":[],"categories_sizes":[],"default_left":[1,1,1,1,1,1,1,1,1,1,1,1,1,1,1,1,1,1,1,1,1,1,1,1,1,1,1,0,0,0,0,0,0,0,0,0,0,0,0,0,0,0,0,0,0,0,0,0,0,0,0,0,0,0,0],"id":15,"left_children":[1,3,5,7,9,11,13,15,17,19,21,23,25,27,29,31,33,35,37,39,41,43,45,47,49,51,53,-1,-1,-1,-1,-1,-1,-1,-1,-1,-1,-1,-1,-1,-1,-1,-1,-1,-1,-1,-1,-1,-1,-1,-1,-1,-1,-1,-1],"loss_changes":[3.8556242E9,1.4422405E9,3.4383206E9,4.7017267E8,6.7710976E8,1.1464781E9,3.1764099E9,2.3507789E8,2.116137E8,1.865607E8,5.7408205E8,3.4680845E8,9.2708966E8,6.2139375E3,9.084774E7,5.5362304E7,1.595497E8,7.174349E7,1.6627277E8,4.0867256E7,1.5237254E8,7.157811E8,1.355202E8,3.1785626E8,6.869336E7,7.880192E8,3.6829888E8,0E0,0E0,0E0,0E0,0E0,0E0,0E0,0E0,0E0,0E0,0E0,0E0,0E0,0E0,0E0,0E0,0E0,0E0,0E0,0E0,0E0,0E0,0E0,0E0,0E0,0E0,0E0,0E0],"parents":[2147483647,0,0,1,1,2,2,3,3,4,4,5,5,6,6,7,7,8,8,9,9,10,10,11,11,12,12,13,13,14,14,15,15,16,16,17,17,18,18,19,19,20,20,21,21,22,22,23,23,24,24,25,25,26,26],"right_children":[2,4,6,8,10,12,14,16,18,20,22,24,26,28,30,32,34,36,38,40,42,44,46,48,50,52,54,-1,-1,-1,-1,-1,-1,-1,-1,-1,-1,-1,-1,-1,-1,-1,-1,-1,-1,-1,-1,-1,-1,-1,-1,-1,-1,-1,-1],"split_conditions":[1.15165E2,1.95E1,1.21295E4,1.85E1,5.8985E1,5E-1,2.5E0,5E-1,8.0104996E1,3.9995003E1,3.5E-2,7.5E-2,2.50785E2,1.25E1,1.7E1,1.7525002E1,1.25E1,5E-1,5E-1,3.7035E1,5E-1,5E-1,5E-1,1.75E1,5E-1,1.65E1,8E2,1.1630289E1,2.5888458E1,1.6522881E3,3.0635798E3,3.2952435E0,1.0596685E1,1.1335831E1,1.9474812E1,1.2441292E1,2.2840984E1,2.9611576E1,6.2406307E1,-8.9995E-1,3.371648E0,5.601962E0,2.8127722E1,1.1359034E1,3.4849285E1,5.1122084E0,1.8475378E1,1.8587236E1,3.8134884E1,4.226913E0,2.58512E1,2.8615635E1,5.643104E1,1.6773505E2,-1.6107639E2],"split_indices":[2,1,2,8,2,7,0,7,2,2,39,39,2,8,8,36,8,7,19,36,22,31,25,8,25,8,2,0,0,0,0,0,0,0,0,0,0,0,0,0,0,0,0,0,0,0,0,0,0,0,0,0,0,0,0],"split_type":[0,0,0,0,0,0,0,0,0,0,0,0,0,0,0,0,0,0,0,0,0,0,0,0,0,0,0,0,0,0,0,0,0,0,0,0,0,0,0,0,0,0,0,0,0,0,0,0,0,0,0,0,0,0,0],"sum_hessian":[1.317364E6,1.222844E6,9.452E4,2.13627E5,1.009217E6,9.4498E4,2.2E1,1.602E5,5.3427E4,4.11601E5,5.97616E5,5.1811E4,4.2687E4,1.1E1,1.1E1,5.182E4,1.0838E5,2.9237E4,2.419E4,9.4405E4,3.17196E5,3.93184E5,2.04432E5,3.7548E4,1.4263E4,4.1936E4,7.51E2,3E0,8E0,7E0,4E0,1.4371E4,3.7449E4,3.6141E4,7.2239E4,1.0183E4,1.9054E4,2.253E4,1.66E3,5.7866E4,3.6539E4,3.14165E5,3.031E3,3.79754E5,1.343E4,1.96539E5,7.893E3,2.5105E4,1.2443E4,1.2601E4,1.662E3,2.4499E4,1.7437E4,7.16E2,3.5E1],"tree_param":{"num_deleted":"0","num_feature":"40","num_nodes":"55","size_leaf_vector":"0"}},{"base_weights":[9.77541E1,7.063264E1,1.8597833E2,2.6979813E2,6.776003E1,1.8513889E2,1.1482386E4,3.3259143E2,7.392245E1,2.6481901E1,8.0869705E1,1.6906874E2,4.7468506E2,2.1276453E2,2.179514E4,1.0685764E2,3.7638467E2,-3.570984E1,9.687495E1,-2.2122374E0,3.798334E1,6.8117676E1,1.2916061E2,1.2630544E2,2.5478146E2,6.5241174E2,2.7356995E2,1.3877022E2,2.6363046E2,1.5077128E4,2.8184934E4,7.3022835E1,2.2432126E2,2.0559093E2,4.2571802E2,-6.2534054E1,1.334228E1,1.529622E2,6.768449E1,-7.2434263E0,8.887731E1,5.4903763E1,1.3675691E1,6.57756E1,2.93327E2,1.5572134E2,7.900812E1,-5.3445297E1,1.4129723E2,2.3283525E2,5.51924E2,9.1376733E2,3.447006E2,2.0032024E2,6.090668E2],"categories":[],"categories_nodes":[],"categories_segments":[],"categories_sizes":[],"default_left":[1,1,1,1,1,1,1,1,1,1,1,1,1,1,1,1,1,1,1,1,1,1,1,1,1,1,1,0,0,0,0,0,0,0,0,0,0,0,0,0,0,0,0,0,0,0,0,0,0,0,0,0,0,0,0],"id":16,"left_children":[1,3,5,7,9,11,13,15,17,19,21,23,25,27,29,31,33,35,37,39,41,43,45,47,49,51,53,-1,-1,-1,-1,-1,-1,-1,-1,-1,-1,-1,-1,-1,-1,-1,-1,-1,-1,-1,-1,-1,-1,-1,-1,-1,-1,-1,-1],"loss_changes":[3.1521382E9,5.7645926E8,2.9351864E9,1.7618067E8,5.3750784E8,1.4411172E9,2.6684424E9,1.0719898E8,8.75779E6,7.901574E7,4.642258E8,1.0755564E9,5.819405E8,8.581375E3,9.017293E7,6.99439E6,7.646093E7,7.9425244E5,4.699908E6,3.1397548E7,7.029624E7,3.145477E8,2.097687E8,5.275794E8,6.368118E8,6.9493376E8,1.8768045E8,0E0,0E0,0E0,0E0,0E0,0E0,0E0,0E0,0E0,0E0,0E0,0E0,0E0,0E0,0E0,0E0,0E0,0E0,0E0,0E0,0E0,0E0,0E0,0E0,0E0,0E0,0E0,0E0],"parents":[2147483647,0,0,1,1,2,2,3,3,4,4,5,5,6,6,7,7,8,8,9,9,10,10,11,11,12,12,13,13,14,14,15,15,16,16,17,17,18,18,19,19,20,20,21,21,22,22,23,23,24,24,25,25,26,26],"right_children":[2,4,6,8,10,12,14,16,18,20,22,24,26,28,30,32,34,36,38,40,42,44,46,48,50,52,54,-1,-1,-1,-1,-1,-1,-1,-1,-1,-1,-1,-1,-1,-1,-1,-1,-1,-1,-1,-1,-1,-1,-1,-1,-1,-1,-1,-1],"split_conditions":[8.4884995E1,1.0735E1,1.21295E4,1.85E-1,4.9864998E1,1.61765E2,2.5E0,1.853825E3,4.2934998E1,3.4835E1,5E-1,1.75E1,5E-3,1.55E1,1.7E1,5.5E-2,4.3285E1,3.495E1,3.85E-1,5E-1,1.5E-2,5E-1,1.8555E1,-6.3050003E0,5E-1,1.7325E1,2.188915E3,1.3877022E1,2.6363047E1,1.5077128E3,2.8184934E3,7.302284E0,2.2432127E1,2.0559093E1,4.2571804E1,-6.2534056E0,1.334228E0,1.5296221E1,6.768449E0,-7.2434264E-1,8.887732E0,5.4903765E0,1.3675691E0,6.57756E0,2.93327E1,1.5572135E1,7.9008117E0,-5.3445296E0,1.4129723E1,2.3283525E1,5.51924E1,9.137673E1,3.447006E1,2.0032024E1,6.0906677E1],"split_indices":[2,35,2,39,2,2,0,38,2,2,7,8,39,8,8,39,2,2,39,25,39,22,35,36,19,35,38,0,0,0,0,0,0,0,0,0,0,0,0,0,0,0,0,0,0,0,0,0,0,0,0,0,0,0,0],"split_type":[0,0,0,0,0,0,0,0,0,0,0,0,0,0,0,0,0,0,0,0,0,0,0,0,0,0,0,0,0,0,0,0,0,0,0,0,0,0,0,0,0,0,0,0,0,0,0,0,0,0,0,0,0,0,0],"sum_hessian":[1.317364E6,1.007611E6,3.09753E5,1.4325E4,9.93286E5,3.09731E5,2.2E1,1.0847E4,3.478E3,2.39423E5,7.53863E5,2.93446E5,1.6285E4,1.1E1,1.1E1,1.763E3,9.084E3,6.02E2,2.876E3,6.8508E4,1.70915E5,5.96381E5,1.57482E5,1.95774E5,9.7672E4,8.644E3,7.641E3,6E0,5E0,7E0,4E0,1.37E3,3.93E2,2.037E3,7.047E3,3.89E2,2.13E2,9.83E2,1.893E3,6.4923E4,3.585E3,1.00769E5,7.0146E4,5.90244E5,6.137E3,1.02955E5,5.4527E4,1.5071E4,1.80703E5,9.0956E4,6.716E3,4.673E3,3.971E3,6.273E3,1.368E3],"tree_param":{"num_deleted":"0","num_feature":"40","num_nodes":"55","size_leaf_vector":"0"}},{"base_weights":[8.798237E1,7.568251E1,2.5462793E2,5.8683083E1,1.2672724E2,2.52016E2,1.0523993E4,4.4699192E1,1.0059204E2,3.5561414E2,1.1846397E2,1.6250534E2,3.6190414E2,1.9484142E2,1.9976146E4,2.0399315E1,6.747639E1,6.516124E1,1.3459474E2,4.4355002E2,1.2463929E2,9.536268E1,1.9116309E2,5.8379257E1,2.1444775E2,2.2648505E2,4.9387082E2,1.2687563E2,2.4166125E2,1.3757881E4,2.593014E4,1.3093961E1,1.17172035E2,1.21728676E2,4.245339E1,4.5420017E0,7.778492E1,1.6900282E2,7.84046E1,3.385295E2,6.418131E2,2.110892E2,3.9790466E1,4.8693935E1,1.2040038E2,2.7066348E2,1.1327901E2,-1.8396877E1,9.437182E1,2.6521146E2,7.927394E1,1.63273E2,3.529415E2,4.8070343E2,3.9047996E3],"categories":[],"categories_nodes":[],"categories_segments":[],"categories_sizes":[],"default_left":[1,1,1,1,1,1,1,1,1,1,1,1,1,1,1,1,1,1,1,1,1,1,1,1,1,1,1,0,0,0,0,0,0,0,0,0,0,0,0,0,0,0,0,0,0,0,0,0,0,0,0,0,0,0,0],"id":17,"left_children":[1,3,5,7,9,11,13,15,17,19,21,23,25,27,29,31,33,35,37,39,41,43,45,47,49,51,53,-1,-1,-1,-1,-1,-1,-1,-1,-1,-1,-1,-1,-1,-1,-1,-1,-1,-1,-1,-1,-1,-1,-1,-1,-1,-1,-1,-1],"loss_changes":[2.700205E9,1.06454016E9,2.42613E9,5.393518E8,5.79647E8,8.9037875E8,2.2416604E9,3.8193997E8,2.773906E8,2.168457E8,4.9678822E8,2.6982592E8,7.261046E8,7.5248438E3,8.753869E7,2.3603514E8,4.8354778E8,8.628944E7,2.2715098E8,1.6081766E8,2.160102E7,2.6230003E8,4.4164403E8,4.5890252E7,2.2838502E8,1.602775E8,9.22431E8,0E0,0E0,0E0,0E0,0E0,0E0,0E0,0E0,0E0,0E0,0E0,0E0,0E0,0E0,0E0,0E0,0E0,0E0,0E0,0E0,0E0,0E0,0E0,0E0,0E0,0E0,0E0,0E0],"parents":[2147483647,0,0,1,1,2,2,3,3,4,4,5,5,6,6,7,7,8,8,9,9,10,10,11,11,12,12,13,13,14,14,15,15,16,16,17,17,18,18,19,19,20,20,21,21,22,22,23,23,24,24,25,25,26,26],"right_children":[2,4,6,8,10,12,14,16,18,20,22,24,26,28,30,32,34,36,38,40,42,44,46,48,50,52,54,-1,-1,-1,-1,-1,-1,-1,-1,-1,-1,-1,-1,-1,-1,-1,-1,-1,-1,-1,-1,-1,-1,-1,-1,-1,-1,-1,-1],"split_conditions":[1.16425E2,5E-1,1.21295E4,1.85E1,1.0815001E1,5E-1,2.5E0,1.8045E1,1.577085E3,5.5E-2,2.0868252E3,1.35E1,1.802565E3,1.55E1,1.7E1,5E-1,1.7215E1,-3.6350002E0,1.8345001E1,7.9520004E1,2.85E-1,5.9995003E1,5E-3,1.7685001E1,7.5E-2,1.75E1,4.34475E2,1.2687564E1,2.4166126E1,1.3757881E3,2.5930142E3,1.3093961E0,1.1717204E1,1.2172868E1,4.245339E0,4.5420018E-1,7.778492E0,1.6900282E1,7.8404603E0,3.385295E1,6.418131E1,2.1108921E1,3.9790466E0,4.869394E0,1.2040038E1,2.7066349E1,1.1327901E1,-1.8396877E0,9.437182E0,2.6521147E1,7.9273944E0,1.63273E1,3.529415E1,4.8070343E1,3.9047995E2],"split_indices":[2,7,2,8,35,7,0,36,38,39,38,8,38,8,8,19,35,36,35,2,39,2,39,36,39,8,2,0,0,0,0,0,0,0,0,0,0,0,0,0,0,0,0,0,0,0,0,0,0,0,0,0,0,0,0],"split_type":[0,0,0,0,0,0,0,0,0,0,0,0,0,0,0,0,0,0,0,0,0,0,0,0,0,0,0,0,0,0,0,0,0,0,0,0,0,0,0,0,0,0,0,0,0,0,0,0,0,0,0,0,0,0,0],"sum_hessian":[1.317364E6,1.226816E6,9.0548E4,9.20323E5,3.06493E5,9.0526E4,2.2E1,6.90068E5,2.30255E5,1.0678E4,2.95815E5,4.989E4,4.0636E4,1.1E1,1.1E1,3.33875E5,3.56193E5,1.12761E5,1.17494E5,7.733E3,2.945E3,2.24484E5,7.1331E4,1.6605E4,3.3285E4,2.0057E4,2.0579E4,6E0,5E0,7E0,4E0,3.10441E5,2.3434E4,1.1243E5,2.43763E5,1.9435E4,9.3326E4,7.287E4,4.4624E4,5.057E3,2.676E3,1.458E3,1.487E3,7.8384E4,1.461E5,3.5298E4,3.6033E4,5.3E3,1.1305E4,2.4197E4,9.088E3,1.3374E4,6.683E3,2.0501E4,7.8E1],"tree_param":{"num_deleted":"0","num_feature":"40","num_nodes":"55","size_leaf_vector":"0"}},{"base_weights":[7.918776E1,6.618556E1,2.084731E2,3.8030037E1,9.036598E1,2.0666794E2,9.645752E3,5.445668E1,1.4698104E1,5.6228863E1,1.2020544E2,2.7353033E2,9.622919E1,1.784284E2,1.8309264E4,9.825606E1,4.2180965E1,1.1913641E1,1.09643456E2,-1.4941165E1,6.826776E1,1.5259857E2,3.4789005E1,4.137082E2,1.706487E2,1.9369672E2,5.4853317E1,1.2231518E2,2.325239E2,8.5774E3,2.0600174E4,2.6915897E1,1.5313243E2,3.9772182E1,2.7763025E2,-1.8813835E1,2.046123E1,8.471965E1,1.5921173E2,2.578991E0,-5.2635925E1,1.0988E2,4.1978947E1,2.4356332E2,1.0131159E2,2.3422533E1,7.328646E1,-3.0835289E1,4.9350342E2,-1.3899987E1,2.0474722E2,9.159714E1,2.5608878E2,1.0836626E2,-5.8609667E0],"categories":[],"categories_nodes":[],"categories_segments":[],"categories_sizes":[],"default_left":[1,1,1,1,1,1,1,1,1,1,1,1,1,1,1,1,1,1,1,1,1,1,1,1,1,1,1,0,0,0,0,0,0,0,0,0,0,0,0,0,0,0,0,0,0,0,0,0,0,0,0,0,0,0,0],"id":18,"left_children":[1,3,5,7,9,11,13,15,17,19,21,23,25,27,29,31,33,35,37,39,41,43,45,47,49,51,53,-1,-1,-1,-1,-1,-1,-1,-1,-1,-1,-1,-1,-1,-1,-1,-1,-1,-1,-1,-1,-1,-1,-1,-1,-1,-1,-1,-1],"loss_changes":[2.214467E9,8.149197E8,2.0487808E9,2.1195923E8,6.5594214E8,8.887219E8,1.883199E9,1.7449293E8,6.040606E7,2.5734163E8,9.507118E8,1.0811116E9,1.830383E8,7.9844688E3,9.084186E7,2.7813702E8,1.4375933E8,5.8303824E7,8.029168E6,2.8699268E7,2.8102016E8,1.16222E9,4.134043E7,1.1256274E9,2.7209254E8,8.61399E7,1.0353002E8,0E0,0E0,0E0,0E0,0E0,0E0,0E0,0E0,0E0,0E0,0E0,0E0,0E0,0E0,0E0,0E0,0E0,0E0,0E0,0E0,0E0,0E0,0E0,0E0,0E0,0E0,0E0,0E0],"parents":[2147483647,0,0,1,1,2,2,3,3,4,4,5,5,6,6,7,7,8,8,9,9,10,10,11,11,12,12,13,13,14,14,15,15,16,16,17,17,18,18,19,19,20,20,21,21,22,22,23,23,24,24,25,25,26,26],"right_children":[2,4,6,8,10,12,14,16,18,20,22,24,26,28,30,32,34,36,38,40,42,44,46,48,50,52,54,-1,-1,-1,-1,-1,-1,-1,-1,-1,-1,-1,-1,-1,-1,-1,-1,-1,-1,-1,-1,-1,-1,-1,-1,-1,-1,-1,-1],"split_conditions":[1.09515E2,6.1915E1,1.21295E4,1.5E-2,1.697795E3,1.7785E1,2.5E0,1.5675E1,5E-1,-5.135E0,1.955E1,5E-3,5.5E0,1.65E1,1.25E1,-5.3599997E0,5E-1,4.1985E1,1.75E1,7.8175E1,5E-3,5E-3,5.5E-2,-5.3450003E0,-3.05E-1,1.35E1,5E-3,1.2231518E1,2.325239E1,8.5774005E2,2.0600173E3,2.6915898E0,1.5313243E1,3.9772184E0,2.7763025E1,-1.8813835E0,2.046123E0,8.471965E0,1.5921173E1,2.578991E-1,-5.2635927E0,1.0988E1,4.1978946E0,2.4356333E1,1.013116E1,2.3422534E0,7.328646E0,-3.083529E0,4.935034E1,-1.3899988E0,2.0474722E1,9.159714E0,2.5608877E1,1.0836626E1,-5.860967E-1],"split_indices":[2,2,2,39,38,35,0,35,25,36,35,39,1,8,8,36,22,2,8,2,39,39,37,36,36,8,39,0,0,0,0,0,0,0,0,0,0,0,0,0,0,0,0,0,0,0,0,0,0,0,0,0,0,0,0],"split_type":[0,0,0,0,0,0,0,0,0,0,0,0,0,0,0,0,0,0,0,0,0,0,0,0,0,0,0,0,0,0,0,0,0,0,0,0,0,0,0,0,0,0,0,0,0,0,0,0,0,0,0,0,0,0,0],"sum_hessian":[1.317364E6,1.196985E6,1.20379E5,5.53036E5,6.43949E5,1.20357E5,2.2E1,3.24543E5,2.28493E5,3.00347E5,3.43602E5,7.4968E4,4.5389E4,1.1E1,1.1E1,7.1046E4,2.53497E5,2.21984E5,6.509E3,4.3455E4,2.56892E5,2.49124E5,9.4478E4,3.1731E4,4.3237E4,1.3525E4,3.1864E4,7E0,4E0,3E0,8E0,3.089E4,4.0156E4,2.50931E5,2.566E3,4.8311E4,1.73673E5,4.333E3,2.176E3,2.9667E4,1.3788E4,9.9458E4,1.57434E5,8.9817E4,1.59307E5,7.2943E4,2.1535E4,4.829E3,2.6902E4,6.743E3,3.6494E4,5.131E3,8.394E3,1.6936E4,1.4928E4],"tree_param":{"num_deleted":"0","num_feature":"40","num_nodes":"55","size_leaf_vector":"0"}},{"base_weights":[7.127141E1,6.46525E1,2.8358594E2,1.2596E2,5.05357E1,2.7865234E2,8.809579E3,1.0141081E2,1.9953609E2,2.241987E1,7.059834E1,1.7044356E2,4.3144714E2,1.6354257E2,1.6721484E4,6.584273E1,1.3522023E2,1.5792E2,2.860174E2,1.8032627E1,1.2908089E2,1.8666583E2,6.3678726E1,2.9383768E2,9.195136E1,3.70134E2,9.264701E2,1.1161261E2,2.13922E2,1.1202404E4,2.2207715E4,-9.713024E0,7.449977E1,1.6811429E2,7.581041E1,9.606639E1,1.892945E2,2.599243E2,5.9983514E2,1.5229449E1,1.1485899E2,3.788484E1,2.784957E2,2.860373E2,1.1145177E2,5.7838486E1,2.0041028E2,2.7978815E2,2.3966055E3,5.966127E1,3.3456424E2,4.7840863E2,1.9966852E2,6.9962427E2,1.5246865E3],"categories":[],"categories_nodes":[],"categories_segments":[],"categories_sizes":[],"default_left":[1,1,1,1,1,1,1,1,1,1,1,1,1,1,1,1,1,1,1,1,1,1,1,1,1,1,1,0,0,0,0,0,0,0,0,0,0,0,0,0,0,0,0,0,0,0,0,0,0,0,0,0,0,0,0],"id":19,"left_children":[1,3,5,7,9,11,13,15,17,19,21,23,25,27,29,31,33,35,37,39,41,43,45,47,49,51,53,-1,-1,-1,-1,-1,-1,-1,-1,-1,-1,-1,-1,-1,-1,-1,-1,-1,-1,-1,-1,-1,-1,-1,-1,-1,-1,-1,-1],"loss_changes":[1.8512635E9,1.1056594E9,1.6728177E9,4.318679E8,5.8575386E8,6.5805184E8,1.5706177E9,2.1559514E8,2.1524787E8,2.0235131E8,4.866949E8,2.256834E8,5.0051584E8,7.518E3,1.1456768E8,5.7151776E7,1.7961408E8,7.835981E7,1.5897088E8,1.1273186E8,2.3277677E8,2.5479872E8,4.5668378E8,2.6698829E8,1.1157525E8,2.7094694E8,2.4564134E8,0E0,0E0,0E0,0E0,0E0,0E0,0E0,0E0,0E0,0E0,0E0,0E0,0E0,0E0,0E0,0E0,0E0,0E0,0E0,0E0,0E0,0E0,0E0,0E0,0E0,0E0,0E0,0E0],"parents":[2147483647,0,0,1,1,2,2,3,3,4,4,5,5,6,6,7,7,8,8,9,9,10,10,11,11,12,12,13,13,14,14,15,15,16,16,17,17,18,18,19,19,20,20,21,21,22,22,23,23,24,24,25,25,26,26],"right_children":[2,4,6,8,10,12,14,16,18,20,22,24,26,28,30,32,34,36,38,40,42,44,46,48,50,52,54,-1,-1,-1,-1,-1,-1,-1,-1,-1,-1,-1,-1,-1,-1,-1,-1,-1,-1,-1,-1,-1,-1,-1,-1,-1,-1,-1,-1],"split_conditions":[1.37435E2,1.95E1,1.21295E4,1.85E1,1.45E1,1.65E1,2.5E0,8.0104996E1,9.3295E1,5E-1,1.2645E1,1.65E1,2.0208E2,1.65E1,1.7E1,3.4184998E1,2.4999999E-2,5E-1,5E-1,5E-1,2.1420698E3,5E-3,5E-1,3.455E2,2.1775952E3,1.7395E1,5E-1,1.1161262E1,2.13922E1,1.1202405E3,2.2207715E3,-9.7130245E-1,7.4499774E0,1.681143E1,7.581041E0,9.606639E0,1.892945E1,2.599243E1,5.9983517E1,1.5229449E0,1.14859E1,3.7884839E0,2.784957E1,2.860373E1,1.1145177E1,5.783849E0,2.0041029E1,2.7978815E1,2.3966055E2,5.966127E0,3.3456425E1,4.7840862E1,1.9966852E1,6.9962425E1,1.5246866E2],"split_indices":[2,1,2,8,8,8,0,2,2,31,35,1,2,8,8,2,39,7,19,25,38,39,19,2,38,35,19,0,0,0,0,0,0,0,0,0,0,0,0,0,0,0,0,0,0,0,0,0,0,0,0,0,0,0,0],"split_type":[0,0,0,0,0,0,0,0,0,0,0,0,0,0,0,0,0,0,0,0,0,0,0,0,0,0,0,0,0,0,0,0,0,0,0,0,0,0,0,0,0,0,0,0,0,0,0,0,0,0,0,0,0,0,0],"sum_hessian":[1.317364E6,1.277538E6,3.9826E4,2.39109E5,1.038429E6,3.9804E4,2.2E1,1.7929E5,5.9819E4,4.32427E5,6.06002E5,2.3303E4,1.6501E4,1.1E1,1.1E1,8.7374E4,9.1916E4,4.0387E4,1.9432E4,4.15344E5,1.7083E4,3.4094E4,5.71908E5,9.059E3,1.4244E4,1.4684E4,1.817E3,7E0,4E0,7E0,4E0,8.982E3,7.8392E4,5.9159E4,3.2757E4,1.3593E4,2.6794E4,1.7942E4,1.49E3,4.03659E5,1.1685E4,1.0609E4,6.474E3,1.4687E4,1.9407E4,5.48482E5,2.3426E4,9E3,5.9E1,1.2572E4,1.672E3,8.979E3,5.705E3,1.319E3,4.98E2],"tree_param":{"num_deleted":"0","num_feature":"40","num_nodes":"55","size_leaf_vector":"0"}},{"base_weights":[6.414748E1,4.3393093E1,1.2180793E2,5.8204823E1,1.784451E1,1.212829E2,8.0752974E3,2.7347363E2,5.5642025E1,3.548511E1,7.1503884E-1,4.58734E1,1.5893216E2,1.4990111E2,1.5327752E4,9.50725E0,3.27358E2,7.951627E0,6.598861E1,6.875022E1,2.1149681E1,-2.1682541E0,7.37174E1,3.214983E1,1.7738084E2,1.4492062E2,4.687003E2,5.3891907E1,1.6371375E2,1.0222192E4,2.0431098E4,4.233558E1,-2.254218E1,1.5737267E2,3.9139355E2,-1.827033E1,3.8615448E1,1.3051285E2,4.217452E1,8.793566E1,3.1055893E1,-7.9433866E0,2.9732117E1,7.6706324E0,-2.025446E1,1.3003035E2,3.7343033E1,6.832638E1,2.0271647E0,4.3170147E1,3.512644E2,9.2875465E1,2.0355388E2,5.985398E2,1.8144559E2],"categories":[],"categories_nodes":[],"categories_segments":[],"categories_sizes":[],"default_left":[1,1,1,1,1,1,1,1,1,1,1,1,1,1,1,1,1,1,1,1,1,1,1,1,1,1,1,0,0,0,0,0,0,0,0,0,0,0,0,0,0,0,0,0,0,0,0,0,0,0,0,0,0,0,0],"id":20,"left_children":[1,3,5,7,9,11,13,15,17,19,21,23,25,27,29,31,33,35,37,39,41,43,45,47,49,51,53,-1,-1,-1,-1,-1,-1,-1,-1,-1,-1,-1,-1,-1,-1,-1,-1,-1,-1,-1,-1,-1,-1,-1,-1,-1,-1,-1,-1],"loss_changes":[1.5764951E9,3.6657075E8,1.4550149E9,3.3827827E8,1.07422904E8,9.898496E8,1.3197094E9,1.0260646E8,2.990108E8,8.351606E7,3.796447E7,2.0953322E8,1.0092616E9,7.0908438E3,1.0381466E8,1.2887604E6,6.515104E7,8.68663E7,7.651374E8,3.8140784E7,3.056072E7,3.0876288E7,1.4032472E7,1.1456794E8,2.5601536E8,6.78912E8,3.7521075E8,0E0,0E0,0E0,0E0,0E0,0E0,0E0,0E0,0E0,0E0,0E0,0E0,0E0,0E0,0E0,0E0,0E0,0E0,0E0,0E0,0E0,0E0,0E0,0E0,0E0,0E0,0E0,0E0],"parents":[2147483647,0,0,1,1,2,2,3,3,4,4,5,5,6,6,7,7,8,8,9,9,10,10,11,11,12,12,13,13,14,14,15,15,16,16,17,17,18,18,19,19,20,20,21,21,22,22,23,23,24,24,25,25,26,26],"right_children":[2,4,6,8,10,12,14,16,18,20,22,24,26,28,30,32,34,36,38,40,42,44,46,48,50,52,54,-1,-1,-1,-1,-1,-1,-1,-1,-1,-1,-1,-1,-1,-1,-1,-1,-1,-1,-1,-1,-1,-1,-1,-1,-1,-1,-1,-1],"split_conditions":[8.1645004E1,2.4999999E-2,1.21295E4,1.0615E1,4.95E-1,1.35E1,2.5E0,1.8548401E3,-5.355E0,1.6724998E1,1.1551E2,5E-1,1.64215E2,1.15E1,1.7E1,6.5E0,4.3184998E1,1.558425E3,1.7325E1,2.35E-1,1.25E1,2.65E-1,1.611E1,5E-3,2.1890352E3,1.778375E3,1.5E-2,5.3891907E0,1.6371374E1,1.02221924E3,2.0431097E3,4.233558E0,-2.2542179E0,1.5737267E1,3.9139355E1,-1.827033E0,3.8615448E0,1.3051285E1,4.217452E0,8.793567E0,3.1055894E0,-7.9433864E-1,2.9732118E0,7.6706326E-1,-2.025446E0,1.3003036E1,3.7343032E0,6.832638E0,2.0271647E-1,4.3170147E0,3.5126442E1,9.287547E0,2.0355389E1,5.985398E1,1.814456E1],"split_indices":[2,39,2,35,37,8,0,38,36,35,36,31,2,8,8,1,2,38,35,39,8,39,35,39,38,38,39,0,0,0,0,0,0,0,0,0,0,0,0,0,0,0,0,0,0,0,0,0,0,0,0,0,0,0,0],"split_type":[0,0,0,0,0,0,0,0,0,0,0,0,0,0,0,0,0,0,0,0,0,0,0,0,0,0,0,0,0,0,0,0,0,0,0,0,0,0,0,0,0,0,0,0,0,0,0,0,0,0,0,0,0,0,0],"sum_hessian":[1.317364E6,9.68693E5,3.48671E5,6.13194E5,3.55499E5,3.48649E5,2.2E1,7.213E3,6.05981E5,1.75136E5,1.80363E5,1.16103E5,2.32546E5,1.1E1,1.1E1,1.223E3,5.99E3,1.08032E5,4.97949E5,5.2743E4,1.22393E5,1.73511E5,6.852E3,1.05133E5,1.097E4,2.22484E5,1.0062E4,2E0,9E0,7E0,4E0,6.04E2,6.19E2,1.64E3,4.35E3,5.8234E4,4.9798E4,1.34235E5,3.63714E5,3.4952E4,1.7791E4,2.7881E4,9.4512E4,1.12378E5,6.1133E4,2.688E3,4.164E3,4.7766E4,5.7367E4,6.192E3,4.778E3,1.17865E5,1.04619E5,6.929E3,3.133E3],"tree_param":{"num_deleted":"0","num_feature":"40","num_nodes":"55","size_leaf_vector":"0"}},{"base_weights":[5.7735275E1,4.9933773E1,1.8654652E2,2.3661597E2,4.689781E1,1.8433743E2,7.401989E3,3.100541E2,3.7200405E1,6.050283E1,1.1772791E1,1.2046365E2,3.1266544E2,1.3672437E2,1.4050421E4,2.300353E2,4.8585822E2,9.6036804E1,7.3741894E0,-2.844322E-1,7.189659E1,6.9397016E0,1.1239819E2,2.0626682E2,5.8123455E1,2.9307025E2,1.2235818E3,9.02671E1,1.837111E2,8.703942E3,1.7946244E4,4.4337284E1,2.675675E2,4.4830063E2,1.6219264E3,8.953193E1,3.4212415E2,-1.2280579E1,6.513186E1,-2.5910406E1,2.6572578E1,1.3204555E2,4.298316E1,2.6522524E0,6.6033035E1,1.0215997E2,2.5965338E2,1.9968459E2,2.2726602E3,-1.6483435E2,7.830885E1,1.8441E2,4.2051254E2,1.7389465E3,4.2097153E2],"categories":[],"categories_nodes":[],"categories_segments":[],"categories_sizes":[],"default_left":[1,1,1,1,1,1,1,1,1,1,1,1,1,1,1,1,1,1,1,1,1,1,1,1,1,1,1,0,0,0,0,0,0,0,0,0,0,0,0,0,0,0,0,0,0,0,0,0,0,0,0,0,0,0,0],"id":21,"left_children":[1,3,5,7,9,11,13,15,17,19,21,23,25,27,29,31,33,35,37,39,41,43,45,47,49,51,53,-1,-1,-1,-1,-1,-1,-1,-1,-1,-1,-1,-1,-1,-1,-1,-1,-1,-1,-1,-1,-1,-1,-1,-1,-1,-1,-1,-1],"loss_changes":[1.323839E9,7.039813E8,1.197772E9,2.9108134E8,5.840888E8,6.1642675E8,1.1090392E9,2.0424883E8,9.389585E6,6.10187E8,1.6595792E8,2.685927E8,4.4575565E8,9.6114375E3,9.374413E7,6.95801E7,1.931134E8,2.850749E6,4.0330785E6,9.571313E7,1.2903235E9,8.249576E7,2.3551296E7,2.8695885E8,1.30914216E8,3.3875315E8,2.1684096E8,0E0,0E0,0E0,0E0,0E0,0E0,0E0,0E0,0E0,0E0,0E0,0E0,0E0,0E0,0E0,0E0,0E0,0E0,0E0,0E0,0E0,0E0,0E0,0E0,0E0,0E0,0E0,0E0],"parents":[2147483647,0,0,1,1,2,2,3,3,4,4,5,5,6,6,7,7,8,8,9,9,10,10,11,11,12,12,13,13,14,14,15,15,16,16,17,17,18,18,19,19,20,20,21,21,22,22,23,23,24,24,25,25,26,26],"right_children":[2,4,6,8,10,12,14,16,18,20,22,24,26,28,30,32,34,36,38,40,42,44,46,48,50,52,54,-1,-1,-1,-1,-1,-1,-1,-1,-1,-1,-1,-1,-1,-1,-1,-1,-1,-1,-1,-1,-1,-1,-1,-1,-1,-1,-1,-1],"split_conditions":[1.20515E2,1.0615E1,1.21295E4,1.85E-1,6.5E-2,1.75E1,2.5E0,8.405E1,3.85E-1,-5.355E0,5E-1,1.65E1,2.4475E2,1.65E1,1.55E1,1.853825E3,1.225E2,1.275E2,2.0149999E0,1.54767E3,1.7325E1,5E-1,6.05E-1,3.455E2,-5.87E0,5E-1,5E-3,9.02671E0,1.837111E1,8.703942E2,1.7946244E3,4.4337287E0,2.675675E1,4.4830063E1,1.6219264E2,8.953193E0,3.4212414E1,-1.2280579E0,6.513186E0,-2.5910406E0,2.6572578E0,1.3204555E1,4.298316E0,2.6522526E-1,6.6033034E0,1.0215998E1,2.5965338E1,1.9968458E1,2.2726602E2,-1.6483435E1,7.8308854E0,1.8441E1,4.2051254E1,1.7389465E2,4.2097153E1],"split_indices":[2,35,2,39,39,8,0,2,39,36,25,1,2,8,8,38,1,1,39,38,35,33,39,2,36,7,39,0,0,0,0,0,0,0,0,0,0,0,0,0,0,0,0,0,0,0,0,0,0,0,0,0,0,0,0],"split_type":[0,0,0,0,0,0,0,0,0,0,0,0,0,0,0,0,0,0,0,0,0,0,0,0,0,0,0,0,0,0,0,0,0,0,0,0,0,0,0,0,0,0,0,0,0,0,0,0,0,0,0,0,0,0,0],"sum_hessian":[1.317364E6,1.242135E6,7.5229E4,1.9876E4,1.222259E6,7.5207E4,2.2E1,1.4526E4,5.35E3,8.81014E5,3.41245E5,5.0215E4,2.4992E4,1.1E1,1.1E1,9.984E3,4.542E3,1.799E3,3.551E3,1.39068E5,7.41946E5,3.25607E5,1.5638E4,2.113E4,2.9085E4,2.4467E4,5.25E2,7E0,4E0,6E0,5E0,1.679E3,8.305E3,4.398E3,1.44E2,1.754E3,4.5E1,2.65E3,9.01E2,7.1165E4,6.7903E4,2.40866E5,5.0108E5,3.03582E5,2.2025E4,1.4623E4,1.015E3,2.1064E4,6.6E1,2.414E3,2.6671E4,1.3208E4,1.1259E4,3.19E2,2.06E2],"tree_param":{"num_deleted":"0","num_feature":"40","num_nodes":"55","size_leaf_vector":"0"}},{"base_weights":[5.1964447E1,3.3309956E1,9.770175E1,-9.971725E0,4.1625813E1,9.729883E1,6.7788525E3,-4.667067E1,-2.3688846E0,2.76335E1,6.961274E1,1.3751964E2,4.2079327E1,1.2533507E2,1.2867466E4,-4.8636997E1,2.821366E2,-1.6000177E1,1.3941973E1,2.4270706E1,1.0570426E2,6.43489E1,1.8389725E2,6.372415E2,1.27483055E2,2.909301E1,1.5022214E2,8.7495544E1,1.7914023E2,8.45063E3,1.736091E4,-3.6736717E1,-7.3461006E1,7.088982E2,1.10428055E2,6.461814E1,-1.8367977E1,4.057579E1,-3.3147757E0,4.098868E1,1.0738879E1,3.0211637E1,1.7575856E2,3.9192413E1,8.877884E1,3.3323288E2,9.962387E1,5.039136E2,1.1039888E3,1.2325183E2,9.2162006E2,2.4111197E1,2.4563168E2,1.1381894E2,2.2374188E2],"categories":[],"categories_nodes":[],"categories_segments":[],"categories_sizes":[],"default_left":[1,1,1,1,1,1,1,1,1,1,1,1,1,1,1,1,1,1,1,1,1,1,1,1,1,1,1,0,0,0,0,0,0,0,0,0,0,0,0,0,0,0,0,0,0,0,0,0,0,0,0,0,0,0,0],"id":22,"left_children":[1,3,5,7,9,11,13,15,17,19,21,23,25,27,29,31,33,35,37,39,41,43,45,47,49,51,53,-1,-1,-1,-1,-1,-1,-1,-1,-1,-1,-1,-1,-1,-1,-1,-1,-1,-1,-1,-1,-1,-1,-1,-1,-1,-1,-1,-1],"loss_changes":[1.1239805E9,3.367895E8,1.0267213E9,4.207805E7,3.073719E8,8.475661E8,9.301332E8,1.674688E7,2.7776694E7,1.3738026E8,1.573742E8,1.1073267E9,2.2585594E8,8.757578E3,9.145088E7,7.59768E6,1.1206625E7,1.2992076E7,2.6140628E7,1.1349293E8,1.1427571E8,1.5370394E8,1.449336E8,2.6995942E8,7.2719795E8,1.5488717E8,4.6120224E7,0E0,0E0,0E0,0E0,0E0,0E0,0E0,0E0,0E0,0E0,0E0,0E0,0E0,0E0,0E0,0E0,0E0,0E0,0E0,0E0,0E0,0E0,0E0,0E0,0E0,0E0,0E0,0E0],"parents":[2147483647,0,0,1,1,2,2,3,3,4,4,5,5,6,6,7,7,8,8,9,9,10,10,11,11,12,12,13,13,14,14,15,15,16,16,17,17,18,18,19,19,20,20,21,21,22,22,23,23,24,24,25,25,26,26],"right_children":[2,4,6,8,10,12,14,16,18,20,22,24,26,28,30,32,34,36,38,40,42,44,46,48,50,52,54,-1,-1,-1,-1,-1,-1,-1,-1,-1,-1,-1,-1,-1,-1,-1,-1,-1,-1,-1,-1,-1,-1,-1,-1,-1,-1,-1,-1],"split_conditions":[7.9985E1,4.3955E1,1.21295E4,2.699E1,1.75E1,1.5E-2,2.5E0,3.5E0,1.8515E1,5E-1,5E-1,1.0615E1,5E-1,1.75E1,1.7E1,6.35E-1,6.315E0,-7.7799997E0,1.7125E1,5E-3,1.99967E3,1.5965E1,5E-3,1.20165E2,2.4475E2,5E-1,1.75E1,8.749555E0,1.7914022E1,8.45063E2,1.7360911E3,-3.6736717E0,-7.346101E0,7.0889824E1,1.1042806E1,6.4618144E0,-1.8367977E0,4.057579E0,-3.3147758E-1,4.0988684E0,1.073888E0,3.0211637E0,1.7575857E1,3.9192414E0,8.877884E0,3.3323288E1,9.962387E0,5.039136E1,1.1039888E2,1.2325183E1,9.216201E1,2.4111197E0,2.456317E1,1.1381894E1,2.237419E1],"split_indices":[2,2,2,2,8,39,0,0,36,31,19,35,25,8,8,37,2,37,35,39,38,36,39,2,2,22,8,0,0,0,0,0,0,0,0,0,0,0,0,0,0,0,0,0,0,0,0,0,0,0,0,0,0,0,0],"split_type":[0,0,0,0,0,0,0,0,0,0,0,0,0,0,0,0,0,0,0,0,0,0,0,0,0,0,0,0,0,0,0,0,0,0,0,0,0,0,0,0,0,0,0,0,0,0,0,0,0,0,0,0,0,0,0],"sum_hessian":[1.317364E6,9.35721E5,3.81643E5,1.50808E5,7.84913E5,3.81621E5,2.2E1,2.588E4,1.24928E5,5.23291E5,2.61622E5,2.20796E5,1.60825E5,1.1E1,1.1E1,2.5727E4,1.53E2,6.8054E4,5.6874E4,5.01683E5,2.1608E4,2.50104E5,1.1518E4,4.346E3,2.1645E5,1.43584E5,1.7241E4,8E0,3E0,7E0,4E0,1.7392E4,8.335E3,4.3E1,1.1E2,1.941E3,6.6113E4,2.2361E4,3.4513E4,2.2442E5,2.77263E5,1.0401E4,1.1207E4,1.23221E5,1.26883E5,4.154E3,7.364E3,3.382E3,9.64E2,2.15304E5,1.146E3,1.40356E5,3.228E3,1.1533E4,5.708E3],"tree_param":{"num_deleted":"0","num_feature":"40","num_nodes":"55","size_leaf_vector":"0"}},{"base_weights":[4.6770348E1,4.1927246E1,2.021223E2,2.87398E1,8.1472946E1,1.9864325E2,6.21435E3,7.5039926E0,4.715796E1,5.894628E1,1.4288365E2,3.0456024E2,8.859291E1,1.1502352E2,1.1795814E4,-1.1492034E0,7.906151E1,8.90993E1,2.2353262E1,1.912324E1,7.299296E1,2.122689E2,9.7113785E1,4.9835803E2,1.5447255E2,2.2845708E2,1.7666143E1,7.471283E1,1.5651591E2,7.7112E3,1.5972034E4,3.0807304E0,-2.8625544E1,1.6743356E2,1.821592E1,1.5550272E2,5.1590984E1,1.0506008E1,5.162153E1,1.7146986E1,2.3493623E2,1.1803296E2,5.6252407E1,3.0539868E2,1.2820004E2,1.2681252E2,4.6393135E1,4.8333316E2,7.45789E3,9.852318E1,3.2228616E2,2.1338329E2,1.4183387E3,2.1717325E1,-1.7284418E3,2.2110117E3,8.1810825E3],"categories":[],"categories_nodes":[],"categories_segments":[],"categories_sizes":[],"default_left":[1,1,1,1,1,1,1,1,1,1,1,1,1,1,1,1,1,1,1,1,1,1,1,1,1,1,1,0,0,1,0,0,0,0,0,0,0,0,0,0,0,0,0,0,0,0,0,0,0,0,0,0,0,0,0,0,0],"id":23,"left_children":[1,3,5,7,9,11,13,15,17,19,21,23,25,27,29,31,33,35,37,39,41,43,45,47,49,51,53,-1,-1,55,-1,-1,-1,-1,-1,-1,-1,-1,-1,-1,-1,-1,-1,-1,-1,-1,-1,-1,-1,-1,-1,-1,-1,-1,-1,-1,-1],"loss_changes":[9.9115725E8,6.662428E8,8.3181914E8,3.747186E8,4.4196045E8,4.6394816E8,7.8163616E8,2.7553907E8,5.3376102E8,1.3075117E8,2.722716E8,5.8988774E8,1.9366635E8,8.377297E3,8.153549E7,4.613903E7,2.5812762E8,4.7488742E8,1.1179016E8,2.5991636E7,1.3027987E8,2.6676838E8,7.781763E7,9.220124E8,1.0730403E8,1.175191E8,9.1678616E7,0E0,0E0,2.587072E6,0E0,0E0,0E0,0E0,0E0,0E0,0E0,0E0,0E0,0E0,0E0,0E0,0E0,0E0,0E0,0E0,0E0,0E0,0E0,0E0,0E0,0E0,0E0,0E0,0E0,0E0,0E0],"parents":[2147483647,0,0,1,1,2,2,3,3,4,4,5,5,6,6,7,7,8,8,9,9,10,10,11,11,12,12,13,13,14,14,15,15,16,16,17,17,18,18,19,19,20,20,21,21,22,22,23,23,24,24,25,25,26,26,29,29],"right_children":[2,4,6,8,10,12,14,16,18,20,22,24,26,28,30,32,34,36,38,40,42,44,46,48,50,52,54,-1,-1,56,-1,-1,-1,-1,-1,-1,-1,-1,-1,-1,-1,-1,-1,-1,-1,-1,-1,-1,-1,-1,-1,-1,-1,-1,-1,-1,-1],"split_conditions":[1.37435E2,1.85E1,1.21295E4,1.8255001E1,7.9795E1,1.6485E1,2.5E0,5E-1,1.7105E1,4.9864998E1,1.6415E1,5E-3,1.25E1,1.65E1,1.7E1,2.65E-1,5E-3,5E-3,2.45E-1,5E-1,1.6404999E1,1.5E-2,1.5E-2,9.5E0,1.85E1,2.51285E2,1.07387E3,7.471283E0,1.5651591E1,1.05E1,1.5972035E3,3.0807304E-1,-2.8625543E0,1.6743357E1,1.821592E0,1.5550272E1,5.1590986E0,1.0506009E0,5.162153E0,1.7146987E0,2.3493624E1,1.1803296E1,5.625241E0,3.053987E1,1.2820004E1,1.26812525E1,4.6393137E0,4.8333317E1,7.45789E2,9.852318E0,3.222862E1,2.133833E1,1.4183388E2,2.1717327E0,-1.7284418E2,2.2110118E2,8.181083E2],"split_indices":[2,8,2,36,2,35,0,19,35,2,35,39,1,8,8,39,39,39,37,20,35,39,39,0,8,2,2,0,0,8,0,0,0,0,0,0,0,0,0,0,0,0,0,0,0,0,0,0,0,0,0,0,0,0,0,0,0],"split_type":[0,0,0,0,0,0,0,0,0,0,0,0,0,0,0,0,0,0,0,0,0,0,0,0,0,0,0,0,0,0,0,0,0,0,0,0,0,0,0,0,0,0,0,0,0,0,0,0,0,0,0,0,0,0,0,0,0],"sum_hessian":[1.317364E6,1.277538E6,3.9826E4,9.58054E5,3.19484E5,3.9804E4,2.2E1,4.4499E5,5.13064E5,2.33744E5,8.574E4,2.0282E4,1.9522E4,1.1E1,1.1E1,3.96985E5,4.8005E4,1.90668E5,3.22396E5,6.095E4,1.72794E5,3.4077E4,5.1663E4,8.851E3,1.1431E4,6.568E3,1.2954E4,7E0,4E0,7E0,4E0,3.44024E5,5.2961E4,1.9574E4,2.8431E4,6.8823E4,1.21845E5,2.295E5,9.2896E4,6.0398E4,5.52E2,4.682E4,1.25974E5,1.6166E4,1.7911E4,3.2583E4,1.908E4,8.833E3,1.8E1,8.574E3,2.857E3,6.487E3,8.1E1,1.2925E4,2.9E1,1E0,6E0],"tree_param":{"num_deleted":"0","num_feature":"40","num_nodes":"57","size_leaf_vector":"0"}},{"base_weights":[4.209607E1,9.293194E1,2.9267889E1,8.257569E1,3.7841528E2,2.9143682E1,5.708547E3,3.1144167E1,1.0828675E2,3.5474667E2,2.332892E3,2.7122314E1,2.2912181E2,1.0544808E2,1.0835934E4,2.0810604E1,1.10031624E2,8.119724E1,1.6906052E2,1.7040181E2,4.8628162E2,-2.3599597E2,5.471656E3,2.4286322E2,2.5239399E1,3.5468277E2,1.5198279E2,7.21681E1,1.5396602E2,7.0699805E3,1.4694271E4,1.4384757E1,8.217881E1,1.7563644E2,-2.1470491E1,4.0331753E1,1.0356373E2,1.4959361E2,4.0676828E2,2.2438652E2,3.6291985E1,2.9051135E2,6.471939E2,6.7282794E2,-2.0424059E3,2.1682146E3,7.601676E3,4.4063428E2,1.170399E2,2.2124033E1,1.3147292E2,2.0728568E2,4.595807E2,1.2046576E2,3.6797617E2,1.992807E1,7.620709E1,2.100461E3,7.479846E3],"categories":[],"categories_nodes":[],"categories_segments":[],"categories_sizes":[],"default_left":[1,1,1,1,1,1,1,1,1,1,1,1,1,1,1,1,1,1,1,1,1,1,1,1,1,1,1,1,0,1,0,0,0,0,0,0,0,0,0,0,0,0,0,0,0,0,0,0,0,0,0,0,0,0,0,0,0,0,0],"id":24,"left_children":[1,3,5,7,9,11,13,15,17,19,21,23,25,27,29,31,33,35,37,39,41,43,45,47,49,51,53,55,-1,57,-1,-1,-1,-1,-1,-1,-1,-1,-1,-1,-1,-1,-1,-1,-1,-1,-1,-1,-1,-1,-1,-1,-1,-1,-1,-1,-1,-1,-1],"loss_changes":[8.5909274E8,7.8476954E8,7.4186234E8,3.387255E8,4.290185E8,4.25202E8,6.596302E8,6.959525E7,2.8114675E8,2.2256038E8,8.9629894E8,4.23022E8,1.0189722E8,8.264672E3,7.047552E7,2.976735E7,8.530924E7,1.0796685E8,2.4358746E8,2.7684408E7,1.6859891E8,1.0316012E8,3.3533773E8,2.241551E8,3.416645E8,6.182867E7,4.4354E7,3.803164E2,0E0,5.83552E5,0E0,0E0,0E0,0E0,0E0,0E0,0E0,0E0,0E0,0E0,0E0,0E0,0E0,0E0,0E0,0E0,0E0,0E0,0E0,0E0,0E0,0E0,0E0,0E0,0E0,0E0,0E0,0E0,0E0],"parents":[2147483647,0,0,1,1,2,2,3,3,4,4,5,5,6,6,7,7,8,8,9,9,10,10,11,11,12,12,13,13,14,14,15,15,16,16,17,17,18,18,19,19,20,20,21,21,22,22,23,23,24,24,25,25,26,26,27,27,29,29],"right_children":[2,4,6,8,10,12,14,16,18,20,22,24,26,28,30,32,34,36,38,40,42,44,46,48,50,52,54,56,-1,58,-1,-1,-1,-1,-1,-1,-1,-1,-1,-1,-1,-1,-1,-1,-1,-1,-1,-1,-1,-1,-1,-1,-1,-1,-1,-1,-1,-1,-1],"split_conditions":[2.05E1,1.5119E2,1.0504E4,1.35E1,3.455E2,5E-1,2.5E0,2.189975E3,9.5985E1,1.45E1,5E-1,1.0225E1,5E-3,1.75E1,1.7E1,5E-1,1.545E1,5E-1,5E-1,1.7974998E1,1.8290549E3,7.4E2,4.34475E2,5E-3,5E-1,5.8995003E1,1.024E2,1.05E1,1.5396602E1,1.05E1,1.4694271E3,1.4384757E0,8.217881E0,1.7563644E1,-2.1470492E0,4.0331755E0,1.0356373E1,1.4959361E1,4.067683E1,2.2438652E1,3.6291986E0,2.9051136E1,6.471939E1,6.72828E1,-2.0424059E2,2.1682146E2,7.601676E2,4.4063427E1,1.170399E1,2.2124033E0,1.3147292E1,2.0728567E1,4.595807E1,1.20465765E1,3.679762E1,1.992807E0,7.6207094E0,2.100461E2,7.479846E2],"split_indices":[1,2,2,8,2,22,0,38,2,8,19,35,39,8,8,25,35,7,19,35,38,2,2,39,25,2,2,8,0,8,0,0,0,0,0,0,0,0,0,0,0,0,0,0,0,0,0,0,0,0,0,0,0,0,0,0,0,0,0],"split_type":[0,0,0,0,0,0,0,0,0,0,0,0,0,0,0,0,0,0,0,0,0,0,0,0,0,0,0,0,0,0,0,0,0,0,0,0,0,0,0,0,0,0,0,0,0,0,0,0,0,0,0,0,0,0,0,0,0,0,0],"sum_hessian":[1.317364E6,2.65445E5,1.051919E6,2.56154E5,9.291E3,1.051897E6,2.2E1,8.5375E4,1.70779E5,9.181E3,1.1E2,1.041372E6,1.0525E4,1.1E1,1.1E1,7.5488E4,9.887E3,1.18127E5,5.2652E4,3.824E3,5.357E3,6.1E1,4.9E1,9.009E3,1.032363E6,4.004E3,6.521E3,8E0,3E0,7E0,4E0,6.8334E4,7.154E3,6.596E3,3.291E3,4.1785E4,7.6342E4,4.8668E4,3.984E3,2.726E3,1.098E3,2.418E3,2.939E3,4.1E1,2E1,2E1,2.9E1,3.502E3,5.507E3,1.002952E6,2.9411E4,1.666E3,2.338E3,5.692E3,8.29E2,1E0,7E0,1E0,6E0],"tree_param":{"num_deleted":"0","num_feature":"40","num_nodes":"59","size_leaf_vector":"0"}},{"base_weights":[3.7889267E1,2.3783468E1,7.731518E1,2.3659685E1,5.244321E3,7.1982025E1,4.4393814E2,2.1606602E1,1.9885428E2,9.6987434E1,9.954628E3,3.298511E1,9.985349E1,1.5844968E2,6.194223E2,-9.804397E0,3.2056213E1,1.4032591E2,3.041937E2,6.601944E1,1.4241856E2,6.4827363E3,1.3518729E4,2.224509E1,1.2737693E2,6.738056E1,1.6299191E2,1.8194318E2,-1.5382726E3,5.6813257E2,2.5618906E3,-2.1606068E1,4.393931E0,-1.2701881E1,4.037836E1,1.1535303E2,2.7665778E2,2.5467024E2,4.8817963E2,1.8931671E1,6.9538956E1,4.049133E1,-1.943617E-1,2.2574828E2,1.1392375E1,-5.952031E0,8.0901184E1,1.4154659E2,3.5629587E2,3.504866E2,2.4355171E1,-1.7823433E3,-1.0434177E3,3.4266705E2,8.8903973E2,-8.91777E2,4.810963E3],"categories":[],"categories_nodes":[],"categories_segments":[],"categories_sizes":[],"default_left":[1,1,1,1,1,1,1,1,1,1,1,1,1,1,1,1,1,1,1,1,0,0,0,1,1,1,1,1,1,1,1,0,0,0,0,0,0,0,0,0,0,0,0,0,0,0,0,0,0,0,0,0,0,0,0,0,0],"id":25,"left_children":[1,3,5,7,9,11,13,15,17,19,21,23,25,27,29,31,33,35,37,39,-1,-1,-1,41,43,45,47,49,51,53,55,-1,-1,-1,-1,-1,-1,-1,-1,-1,-1,-1,-1,-1,-1,-1,-1,-1,-1,-1,-1,-1,-1,-1,-1,-1,-1],"loss_changes":[7.326294E8,6.268566E8,6.786962E8,3.4897126E8,5.5668154E8,3.718843E8,2.4924314E8,3.1476803E8,6.924346E7,7.480539E3,6.085171E7,1.4457595E8,4.0910374E8,7.585811E7,3.0560013E8,4.011307E7,2.6803546E8,2.4569728E7,3.644064E7,1.7504688E2,0E0,0E0,0E0,5.2427004E7,1.662233E8,1.3065165E8,2.8088794E8,4.9686012E7,1.28054E6,2.1704512E8,6.1792666E8,0E0,0E0,0E0,0E0,0E0,0E0,0E0,0E0,0E0,0E0,0E0,0E0,0E0,0E0,0E0,0E0,0E0,0E0,0E0,0E0,0E0,0E0,0E0,0E0,0E0,0E0],"parents":[2147483647,0,0,1,1,2,2,3,3,4,4,5,5,6,6,7,7,8,8,9,9,10,10,11,11,12,12,13,13,14,14,15,15,16,16,17,17,18,18,19,19,23,23,24,24,25,25,26,26,27,27,28,28,29,29,30,30],"right_children":[2,4,6,8,10,12,14,16,18,20,22,24,26,28,30,32,34,36,38,40,-1,-1,-1,42,44,46,48,50,52,54,56,-1,-1,-1,-1,-1,-1,-1,-1,-1,-1,-1,-1,-1,-1,-1,-1,-1,-1,-1,-1,-1,-1,-1,-1,-1,-1],"split_conditions":[5E-1,1.0504E4,1.7698001E2,5E-1,2.5E0,1.45E1,1.80273E3,1.25E1,1.5855E1,1.75E1,1.7E1,5E-1,8.5634995E1,6.9E2,4.34475E2,3.3085E1,-4.645E0,1.024E2,9.909E1,1.05E1,1.4241857E1,6.482736E2,1.3518729E3,5E-3,1.5415E1,3.9955E1,5E-1,1.15E1,1E1,1.65E1,5E0,-2.1606069E0,4.393931E-1,-1.2701882E0,4.037836E0,1.1535303E1,2.7665777E1,2.5467024E1,4.8817963E1,1.8931671E0,6.9538956E0,4.049133E0,-1.9436171E-2,2.2574827E1,1.1392375E0,-5.952031E-1,8.090118E0,1.4154658E1,3.562959E1,3.504866E1,2.435517E0,-1.7823433E2,-1.04341774E2,3.4266705E1,8.890398E1,-8.91777E1,4.8109628E2],"split_indices":[7,2,2,22,0,8,38,8,35,8,8,31,2,2,2,36,36,2,2,8,0,0,0,39,35,2,19,1,0,8,1,0,0,0,0,0,0,0,0,0,0,0,0,0,0,0,0,0,0,0,0,0,0,0,0,0,0],"split_type":[0,0,0,0,0,0,0,0,0,0,0,0,0,0,0,0,0,0,0,0,0,0,0,0,0,0,0,0,0,0,0,0,0,0,0,0,0,0,0,0,0,0,0,0,0,0,0,0,0,0,0,0,0,0,0,0,0],"sum_hessian":[1.317364E6,9.70235E5,3.47129E5,9.70213E5,2.2E1,3.42153E5,4.976E3,9.58976E5,1.1237E4,1.1E1,1.1E1,1.42614E5,1.99539E5,1.895E3,3.081E3,2.39388E5,7.19588E5,7.225E3,4.012E3,8E0,3E0,7E0,4E0,1.28046E5,1.4568E4,1.3177E5,6.7769E4,1.87E3,2.5E1,3.003E3,7.8E1,1.30727E5,1.08661E5,1.1282E5,6.06768E5,6.108E3,1.117E3,3.163E3,8.49E2,1E0,7E0,7.0621E4,5.7425E4,7.882E3,6.686E3,2.0513E4,1.11257E5,6.1003E4,6.766E3,9.03E2,9.67E2,1.5E1,1E1,1.765E3,1.238E3,3.1E1,4.7E1],"tree_param":{"num_deleted":"0","num_feature":"40","num_nodes":"57","size_leaf_vector":"0"}},{"base_weights":[3.410223E1,5.2393692E1,8.530446E0,4.738792E1,2.5693933E2,3.809043E0,9.138482E1,2.8668137E2,4.40661E1,2.2946089E2,1.2902815E3,2.0597718E0,1.4000027E2,6.569458E1,1.4274565E2,1.9980338E2,5.6339056E2,-9.083946E0,5.4338493E1,3.0527652E2,5.766606E0,1.1088367E3,4.8078555E3,7.868183E1,-8.7409264E-1,1.1260726E2,3.0314023E2,6.33831E1,5.0585443E2,1.2733396E2,2.8392264E2,-4.509284E1,2.5220659E2,5.1011172E2,1.8516542E3,-3.581366E1,2.1366718E1,1.2095301E2,3.1069939E1,4.2951748E1,3.8021512E2,9.0889465E1,-2.6192358E2,1.4478938E3,-1.8508457E3,8.9212746E1,9.125843E3,1.09776665E2,2.5275822E1,-4.4996305E0,5.2141647E1,5.1848255E1,1.5583029E2,1.2540696E2,3.5392325E2,3.145943E1,8.2353355E1,7.7027466E2,1.6145819E2,1.2033373E2,2.8938187E2,2.7349155E2,1.5053806E3],"categories":[],"categories_nodes":[],"categories_segments":[],"categories_sizes":[],"default_left":[1,1,1,1,1,1,1,1,1,1,1,1,1,1,1,1,1,1,1,1,1,1,1,1,1,1,1,1,1,1,1,0,0,0,0,0,0,0,0,0,0,0,0,0,0,0,0,0,0,0,0,0,0,0,0,0,0,0,0,0,0,0,0],"id":26,"left_children":[1,3,5,7,9,11,13,15,17,19,21,23,25,27,29,31,33,35,37,39,41,43,45,47,49,51,53,55,57,59,61,-1,-1,-1,-1,-1,-1,-1,-1,-1,-1,-1,-1,-1,-1,-1,-1,-1,-1,-1,-1,-1,-1,-1,-1,-1,-1,-1,-1,-1,-1,-1,-1],"loss_changes":[6.1619085E8,7.863588E8,2.1490198E8,5.95887E8,5.2063168E8,1.2382041E8,3.906944E7,2.466334E8,4.036974E8,3.030988E8,2.9783546E8,1.1535577E8,2.9420344E7,2.005592E7,2.1447456E7,1.0027837E8,1.6735386E8,9.747792E7,9.604558E8,2.6238208E8,1.0313297E8,4.5726586E8,4.678117E8,3.1423384E7,9.499609E7,1.4816752E7,8.50308E6,1.1892608E7,9.255362E6,1.0065616E7,1.195996E7,0E0,0E0,0E0,0E0,0E0,0E0,0E0,0E0,0E0,0E0,0E0,0E0,0E0,0E0,0E0,0E0,0E0,0E0,0E0,0E0,0E0,0E0,0E0,0E0,0E0,0E0,0E0,0E0,0E0,0E0,0E0,0E0],"parents":[2147483647,0,0,1,1,2,2,3,3,4,4,5,5,6,6,7,7,8,8,9,9,10,10,11,11,12,12,13,13,14,14,15,15,16,16,17,17,18,18,19,19,20,20,21,21,22,22,23,23,24,24,25,25,26,26,27,27,28,28,29,29,30,30],"right_children":[2,4,6,8,10,12,14,16,18,20,22,24,26,28,30,32,34,36,38,40,42,44,46,48,50,52,54,56,58,60,62,-1,-1,-1,-1,-1,-1,-1,-1,-1,-1,-1,-1,-1,-1,-1,-1,-1,-1,-1,-1,-1,-1,-1,-1,-1,-1,-1,-1,-1,-1,-1,-1],"split_conditions":[1.5E-2,1.4751999E2,5E-1,1.0615E1,2.985E2,5E-1,1.75E1,9.2479996E1,-5.355E0,1.8765E1,1.21295E4,-8.635E0,1.10994995E2,8.05E-1,1.2835E2,1.8548401E3,1.245E2,1.548885E3,1.7035E1,-5.75E-1,1.908105E3,1.15887E3,2.5E0,2.45E-1,2.188165E3,1.45E1,1.491E1,1.25E1,8.15E-1,6.05E-1,8E-1,-4.509284E0,2.522066E1,5.1011173E1,1.8516542E2,-3.581366E0,2.1366718E0,1.2095302E1,3.106994E0,4.295175E0,3.802151E1,9.088946E0,-2.6192358E1,1.4478938E2,-1.8508458E2,8.921275E0,9.125843E2,1.0977667E1,2.5275822E0,-4.4996306E-1,5.2141647E0,5.1848254E0,1.558303E1,1.2540696E1,3.5392326E1,3.1459432E0,8.235335E0,7.7027466E1,1.6145819E1,1.2033374E1,2.8938187E1,2.7349155E1,1.5053807E2],"split_indices":[39,2,25,35,2,22,8,2,36,35,2,37,2,39,2,38,1,38,35,36,38,2,0,39,38,8,35,8,39,39,39,0,0,0,0,0,0,0,0,0,0,0,0,0,0,0,0,0,0,0,0,0,0,0,0,0,0,0,0,0,0,0,0],"split_type":[0,0,0,0,0,0,0,0,0,0,0,0,0,0,0,0,0,0,0,0,0,0,0,0,0,0,0,0,0,0,0,0,0,0,0,0,0,0,0,0,0,0,0,0,0,0,0,0,0,0,0,0,0,0,0,0,0,0,0,0,0,0,0],"sum_hessian":[1.317364E6,7.68008E5,5.49356E5,7.49663E5,1.8345E4,5.1974E5,2.9616E4,1.0263E4,7.394E5,1.7871E4,4.74E2,5.1315E5,6.59E3,1.9743E4,9.873E3,7.812E3,2.451E3,1.19759E5,6.19641E5,1.3347E4,4.524E3,4.52E2,2.2E1,1.8923E4,4.94227E5,5.644E3,9.46E2,1.9641E4,1.02E2,8.903E3,9.7E2,1.377E3,6.435E3,2.355E3,9.6E1,6.3776E4,5.5983E4,1.60409E5,4.59232E5,2.966E3,1.0381E4,3.433E3,1.091E3,4.06E2,4.6E1,1.1E1,1.1E1,1.1959E4,6.964E3,4.62593E5,3.1634E4,2.347E3,3.297E3,2.11E2,7.35E2,7.322E3,1.2319E4,5.7E1,4.5E1,8.536E3,3.67E2,9.63E2,7E0],"tree_param":{"num_deleted":"0","num_feature":"40","num_nodes":"63","size_leaf_vector":"0"}},{"base_weights":[3.069321E1,1.8492676E1,6.729376E1,1.4092623E1,8.805553E1,5.806891E1,2.5900333E2,1.4039622E1,5.48477E3,3.662659E0,1.532106E2,3.2759476E1,8.807647E1,2.5574814E2,8.416229E3,1.1947824E1,1.4321193E2,1.9313516E3,6.224125E3,-2.8090094E1,4.451565E1,2.066512E2,-6.1585716E1,-1.39071865E1,4.1745396E1,7.912115E1,2.3360011E2,2.1310825E2,5.8856793E2,1.2954329E2,1.2527186E4,8.444125E0,9.077402E1,2.5105702E2,8.319351E1,-6.2659843E1,1.110574E1,1.4418897E1,7.212635E1,3.8834088E2,1.0750015E2,-7.392184E1,6.60496E1,-4.902848E1,-3.1228101E0,6.007374E1,1.617089E1,2.5443907E2,7.069144E1,3.8282043E2,1.300807E2,4.958463E2,1.6473953E2,5.490895E2,7.268682E3],"categories":[],"categories_nodes":[],"categories_segments":[],"categories_sizes":[],"default_left":[1,1,1,1,1,1,1,1,1,1,1,1,1,1,1,1,1,0,0,1,1,1,1,1,1,1,1,1,1,0,0,0,0,0,0,0,0,0,0,0,0,0,0,0,0,0,0,0,0,0,0,0,0,0,0],"id":27,"left_children":[1,3,5,7,9,11,13,15,17,19,21,23,25,27,29,31,33,-1,-1,35,37,39,41,43,45,47,49,51,53,-1,-1,-1,-1,-1,-1,-1,-1,-1,-1,-1,-1,-1,-1,-1,-1,-1,-1,-1,-1,-1,-1,-1,-1,-1,-1],"loss_changes":[5.882632E8,3.0241152E8,5.824344E8,2.6935722E8,3.2319206E8,2.3864595E8,3.9933504E8,2.5107962E8,1.1624192E7,3.3221118E7,3.8075443E8,7.148174E7,1.8734426E8,2.1437754E8,2.027745E8,2.5254859E8,9.582675E7,0E0,0E0,1.9526104E7,9.306076E6,4.7844723E8,1.0410914E7,1.0424872E7,6.699907E7,2.0014157E8,1.286871E8,1.8317242E8,4.4855328E8,0E0,0E0,0E0,0E0,0E0,0E0,0E0,0E0,0E0,0E0,0E0,0E0,0E0,0E0,0E0,0E0,0E0,0E0,0E0,0E0,0E0,0E0,0E0,0E0,0E0,0E0],"parents":[2147483647,0,0,1,1,2,2,3,3,4,4,5,5,6,6,7,7,8,8,9,9,10,10,11,11,12,12,13,13,14,14,15,15,16,16,19,19,20,20,21,21,22,22,23,23,24,24,25,25,26,26,27,27,28,28],"right_children":[2,4,6,8,10,12,14,16,18,20,22,24,26,28,30,32,34,-1,-1,36,38,40,42,44,46,48,50,52,54,-1,-1,-1,-1,-1,-1,-1,-1,-1,-1,-1,-1,-1,-1,-1,-1,-1,-1,-1,-1,-1,-1,-1,-1,-1,-1],"split_conditions":[1.85E1,5E-1,1.26265E2,1.21295E4,1.951425E3,6.6985E1,1.21295E4,5E-1,1.15E1,1.6415E1,1.5415E1,3.9995003E1,5E-1,5E-1,2.5E0,5E-1,5E-3,1.9313516E2,6.2241254E2,4.5E-2,7.208E1,5E-3,2.30286E3,2.699E1,1.5E-2,9.615E0,5E-3,1.2545E1,4.34475E2,1.29543295E1,1.2527186E3,8.444125E-1,9.077402E0,2.5105703E1,8.319351E0,-6.2659845E0,1.110574E0,1.4418896E0,7.212635E0,3.8834087E1,1.0750015E1,-7.392184E0,6.60496E0,-4.9028482E0,-3.12281E-1,6.007374E0,1.6170892E0,2.5443907E1,7.069144E0,3.8282043E1,1.3008071E1,4.9584633E1,1.6473953E1,5.4908947E1,7.268682E2],"split_indices":[8,31,2,2,38,2,2,22,8,35,35,2,19,19,0,25,39,0,0,39,2,39,38,2,39,35,39,35,2,0,0,0,0,0,0,0,0,0,0,0,0,0,0,0,0,0,0,0,0,0,0,0,0,0,0],"split_type":[0,0,0,0,0,0,0,0,0,0,0,0,0,0,0,0,0,0,0,0,0,0,0,0,0,0,0,0,0,0,0,0,0,0,0,0,0,0,0,0,0,0,0,0,0,0,0,0,0,0,0,0,0,0,0],"sum_hessian":[1.317364E6,9.88017E5,3.29347E5,9.29241E5,5.8776E4,3.14228E5,1.5119E4,9.29233E5,8E0,2.5608E4,3.3168E4,1.70459E5,1.43769E5,1.5114E4,5E0,9.14426E5,1.4807E4,2E0,6E0,1.4409E4,1.1199E4,2.656E4,6.608E3,2.7523E4,1.42936E5,1.35436E5,8.333E3,1.3399E4,1.715E3,2E0,3E0,8.75512E5,3.8914E4,5.293E3,9.514E3,7.656E3,6.753E3,5.359E3,5.84E3,9.376E3,1.7184E4,6.026E3,5.82E2,6.465E3,2.1058E4,8.3263E4,5.9673E4,6.212E3,1.29224E5,3.412E3,4.921E3,1.956E3,1.1443E4,1.706E3,9E0],"tree_param":{"num_deleted":"0","num_feature":"40","num_nodes":"55","size_leaf_vector":"0"}},{"base_weights":[2.7626247E1,-5.250482E-1,4.167995E1,-4.464715E0,6.172204E1,3.5785313E1,1.632106E2,9.05019E0,-1.5682064E1,-5.141046E0,1.5551665E2,7.241888E-1,4.7869198E1,1.6141478E2,5.017073E3,-2.452796E1,1.8764492E1,-1.8157623E1,2.915994E1,3.5507576E1,-4.6727528E1,3.2244803E2,5.684038E1,-3.3573326E1,1.0319168E1,3.4913387E1,9.460321E1,2.4762457E2,7.32705E1,7.20154E1,9.334997E3,-2.9316534E1,7.668619E1,-2.6994503E1,3.1158634E1,-1.3086514E1,-4.5163914E1,-2.357337E0,5.067385E1,-4.96383E1,4.526259E1,-1.1746082E2,-3.6604958E1,2.0338638E2,5.556214E2,1.2003513E2,-8.2689445E1,-5.4836792E1,-2.1159779E1,8.858246E0,1.761198E2,3.1336897E1,2.1103212E2,1.285369E2,1.2446148E1,1.1720079E2,3.900163E2,1.7049661E2,1.9524145E1,3.5567005E1,1.2090707E2,5.665878E3,1.1587646E4],"categories":[],"categories_nodes":[],"categories_segments":[],"categories_sizes":[],"default_left":[1,1,1,1,1,1,1,1,1,1,1,1,1,1,1,1,1,1,1,1,1,1,1,1,1,1,1,1,1,1,1,0,0,0,0,0,0,0,0,0,0,0,0,0,0,0,0,0,0,0,0,0,0,0,0,0,0,0,0,0,0,0,0],"id":28,"left_children":[1,3,5,7,9,11,13,15,17,19,21,23,25,27,29,31,33,35,37,39,41,43,45,47,49,51,53,55,57,59,61,-1,-1,-1,-1,-1,-1,-1,-1,-1,-1,-1,-1,-1,-1,-1,-1,-1,-1,-1,-1,-1,-1,-1,-1,-1,-1,-1,-1,-1,-1,-1,-1],"loss_changes":[5.211892E8,1.0757556E8,6.294765E8,6.254421E7,1.6375325E8,3.5506163E8,3.5350413E8,6.103551E7,2.5026516E7,2.5772314E7,1.7898467E8,7.068922E7,3.773595E8,3.0875565E8,3.1961347E8,2.0352146E7,8.231037E7,2.925876E7,7.997837E6,6.406165E6,5.391495E6,1.1196221E8,6.0242624E7,1.2393376E7,4.065512E7,3.0736134E8,3.7713613E8,3.8144525E8,1.04993624E8,9.955875E3,4.67776E5,0E0,0E0,0E0,0E0,0E0,0E0,0E0,0E0,0E0,0E0,0E0,0E0,0E0,0E0,0E0,0E0,0E0,0E0,0E0,0E0,0E0,0E0,0E0,0E0,0E0,0E0,0E0,0E0,0E0,0E0,0E0,0E0],"parents":[2147483647,0,0,1,1,2,2,3,3,4,4,5,5,6,6,7,7,8,8,9,9,10,10,11,11,12,12,13,13,14,14,15,15,16,16,17,17,18,18,19,19,20,20,21,21,22,22,23,23,24,24,25,25,26,26,27,27,28,28,29,29,30,30],"right_children":[2,4,6,8,10,12,14,16,18,20,22,24,26,28,30,32,34,36,38,40,42,44,46,48,50,52,54,56,58,60,62,-1,-1,-1,-1,-1,-1,-1,-1,-1,-1,-1,-1,-1,-1,-1,-1,-1,-1,-1,-1,-1,-1,-1,-1,-1,-1,-1,-1,-1,-1,-1,-1],"split_conditions":[1.35E1,5E-1,1.2621E2,5E-3,2.1880298E3,5.3815002E1,1.21295E4,-3.85E-1,5E-1,1.8648601E3,5E-3,3.4835E1,2.04735E3,5E-3,2.5E0,1.5538501E2,-7.31E0,9.0725006E1,6.4774994E1,5.5875E1,4.032E1,8.9525E1,1.85E-1,2.699E1,5E-1,5E-1,1.823E1,1.80172E3,1.15E1,1.85E1,1.85E1,-2.9316535E0,7.6686187E0,-2.6994503E0,3.1158636E0,-1.3086514E0,-4.5163913E0,-2.357337E-1,5.067385E0,-4.9638305E0,4.526259E0,-1.1746082E1,-3.6604958E0,2.0338638E1,5.556214E1,1.2003513E1,-8.268945E0,-5.4836793E0,-2.115978E0,8.858246E-1,1.761198E1,3.1336896E0,2.1103212E1,1.285369E1,1.2446148E0,1.1720079E1,3.900163E1,1.7049662E1,1.9524145E0,3.5567005E0,1.2090707E1,5.665878E2,1.1587646E3],"split_indices":[8,31,2,39,38,2,2,37,25,38,39,2,38,39,0,36,36,2,36,36,2,2,39,2,20,22,35,38,1,8,8,0,0,0,0,0,0,0,0,0,0,0,0,0,0,0,0,0,0,0,0,0,0,0,0,0,0,0,0,0,0,0,0],"split_type":[0,0,0,0,0,0,0,0,0,0,0,0,0,0,0,0,0,0,0,0,0,0,0,0,0,0,0,0,0,0,0,0,0,0,0,0,0,0,0,0,0,0,0,0,0,0,0,0,0,0,0,0,0,0,0,0,0,0,0,0,0,0,0],"sum_hessian":[1.317364E6,4.38665E5,8.78699E5,4.12555E5,2.611E4,8.38052E5,4.0647E4,1.87115E5,2.2544E5,1.5244E4,1.0866E4,2.14804E5,6.23248E5,4.0633E4,1.4E1,4.1986E4,1.45129E5,2.13646E5,1.1794E4,7.709E3,7.535E3,4.036E3,6.83E3,4.6956E4,1.67848E5,4.87972E5,1.35276E5,2.0541E4,2.0092E4,7E0,7E0,4.009E4,1.896E3,3.0931E4,1.14198E5,1.79872E5,3.3774E4,4.785E3,7.009E3,7.92E2,6.917E3,9.42E2,6.593E3,2.673E3,1.363E3,4.701E3,2.129E3,1.7307E4,2.9649E4,1.66383E5,1.465E3,4.78261E5,9.711E3,9.5734E4,3.9542E4,1.0722E4,9.819E3,7.152E3,1.294E4,5E0,2E0,4E0,3E0],"tree_param":{"num_deleted":"0","num_feature":"40","num_nodes":"63","size_leaf_vector":"0"}},{"base_weights":[2.4865088E1,4.5664616E1,7.866701E0,4.320266E1,4.7192764E2,4.3450875E0,7.604161E1,1.0070215E2,2.9356903E1,3.7975662E2,1.4378176E3,1.2505526E1,-2.1799814E1,5.041074E1,1.2719559E2,9.082707E0,1.666136E2,2.6319834E1,3.019908E2,5.0277292E2,6.737539E1,8.246247E2,3.8359658E3,7.799567E0,8.822143E1,-1.5811303E1,-6.484937E1,4.5325966E1,1.8819418E2,1.12702675E2,2.2594972E2,2.4339607E-1,1.11268616E2,3.0088562E2,1.24168045E2,2.1661413E1,1.8846332E2,2.4585828E2,5.110728E2,3.5869485E2,7.726191E2,1.50549E2,-3.3461755E2,2.6336884E2,2.7217812E3,5.2441907E2,5.3577944E3,7.7547216E-1,4.289721E1,1.4928932E2,4.8708733E1,-1.9246395E1,4.176543E1,-1.7682648E1,-1.15593575E2,2.1566813E1,6.8818886E1,1.7616704E2,1.4230105E3,8.172162E1,1.4625789E2,2.156349E2,1.2464937E3],"categories":[],"categories_nodes":[],"categories_segments":[],"categories_sizes":[],"default_left":[1,1,1,1,1,1,1,1,1,1,1,1,1,1,1,1,1,1,1,1,1,1,1,1,1,1,1,1,1,1,1,0,0,0,0,0,0,0,0,0,0,0,0,0,0,0,0,0,0,0,0,0,0,0,0,0,0,0,0,0,0,0,0],"id":29,"left_children":[1,3,5,7,9,11,13,15,17,19,21,23,25,27,29,31,33,35,37,39,41,43,45,47,49,51,53,55,57,59,61,-1,-1,-1,-1,-1,-1,-1,-1,-1,-1,-1,-1,-1,-1,-1,-1,-1,-1,-1,-1,-1,-1,-1,-1,-1,-1,-1,-1,-1,-1,-1,-1],"loss_changes":[4.6576512E8,6.217121E8,1.7404355E8,4.689468E8,3.023241E8,1.4706893E8,4.667867E7,6.9030835E8,3.930716E8,1.1936179E8,4.321129E8,1.8718843E8,4.2271656E7,1.6611756E7,1.6984752E7,4.320257E7,3.7887168E8,3.5462454E8,6.1255264E7,8.638394E7,2.9439918E7,2.5163846E8,2.995666E8,1.2193478E8,7.416941E7,2.847144E7,4.792415E7,1.2769488E7,1.2283826E7,1.076428E7,1.5731824E7,0E0,0E0,0E0,0E0,0E0,0E0,0E0,0E0,0E0,0E0,0E0,0E0,0E0,0E0,0E0,0E0,0E0,0E0,0E0,0E0,0E0,0E0,0E0,0E0,0E0,0E0,0E0,0E0,0E0,0E0,0E0,0E0],"parents":[2147483647,0,0,1,1,2,2,3,3,4,4,5,5,6,6,7,7,8,8,9,9,10,10,11,11,12,12,13,13,14,14,15,15,16,16,17,17,18,18,19,19,20,20,21,21,22,22,23,23,24,24,25,25,26,26,27,27,28,28,29,29,30,30],"right_children":[2,4,6,8,10,12,14,16,18,20,22,24,26,28,30,32,34,36,38,40,42,44,46,48,50,52,54,56,58,60,62,-1,-1,-1,-1,-1,-1,-1,-1,-1,-1,-1,-1,-1,-1,-1,-1,-1,-1,-1,-1,-1,-1,-1,-1,-1,-1,-1,-1,-1,-1,-1,-1],"split_conditions":[5E-3,1.9265E2,5E-1,1.5215E1,3.11E2,2.35E-1,1.75E1,1.85615E3,5E-1,1.8555E1,5E-1,5E-1,9.2009995E1,6.05E-1,1.21884995E2,2.05E1,3.85E-1,5E-1,1.0389E2,1.75E1,1.95852E3,2.21402E3,3.69E2,1.95E1,1.1895E1,5E-1,2.65E-1,1.35E1,2.34E2,6.7055E1,8.05E-1,2.4339607E-2,1.1126862E1,3.0088562E1,1.2416804E1,2.1661413E0,1.8846333E1,2.4585829E1,5.110728E1,3.5869488E1,7.726191E1,1.50549E1,-3.3461758E1,2.6336884E1,2.7217813E2,5.2441906E1,5.357795E2,7.7547215E-2,4.289721E0,1.4928932E1,4.8708735E0,-1.9246396E0,4.176543E0,-1.7682648E0,-1.1559358E1,2.1566813E0,6.881889E0,1.7616705E1,1.4230106E2,8.172162E0,1.4625789E1,2.156349E1,1.2464937E2],"split_indices":[39,2,25,35,2,39,8,38,22,35,19,31,2,39,2,8,37,25,2,8,38,38,2,8,35,33,37,8,2,36,39,0,0,0,0,0,0,0,0,0,0,0,0,0,0,0,0,0,0,0,0,0,0,0,0,0,0,0,0,0,0,0,0],"split_type":[0,0,0,0,0,0,0,0,0,0,0,0,0,0,0,0,0,0,0,0,0,0,0,0,0,0,0,0,0,0,0,0,0,0,0,0,0,0,0,0,0,0,0,0,0,0,0,0,0,0,0,0,0,0,0,0,0,0,0,0,0,0,0],"sum_hessian":[1.317364E6,5.92441E5,7.24923E5,5.8904E5,3.401E3,6.89317E5,3.5606E4,1.14312E5,4.74728E5,3.106E3,2.95E2,5.25345E5,1.63972E5,2.3722E4,1.1884E4,4.7829E4,6.6483E4,4.69499E5,5.229E3,2.228E3,8.78E2,2.36E2,5.9E1,4.94605E5,3.074E4,1.43949E5,2.0023E4,2.2879E4,8.43E2,1.0365E4,1.519E3,4.4022E4,3.807E3,1.5967E4,5.0516E4,4.56388E5,1.3111E4,4.124E3,1.105E3,1.454E3,7.74E2,7.28E2,1.5E2,1.83E2,5.3E1,1.9E1,4E1,4.12127E5,8.2478E4,1.2075E4,1.8665E4,1.35845E5,8.104E3,